svm_type c_svc
kernel_type rbf
gamma 0.02564102564102564
nr_class 2
total_sv 4279
rho 0.87814988638974789
label 0 1
nr_sv 802 3477
SV
1 1:21.6168 2:2.1834 3:-6.0964 4:-1.3535 5:-5.4306 6:-1.0498 7:-0.4525 8:-2.6551 9:-0.884 10:-0.8192 11:0.2757 12:-0.3256 13:6.9775 14:1.1416 15:-1.8461 16:0.5634 17:-1.4958 18:0.1843 19:-0.499 20:-0.9638 21:-0.9535 22:-0.3573 23:-0.1774 24:-0.4598 25:33.1405 26:4.3113 27:-2.2088 28:0.7882 29:-1.137 30:-0.1789 31:-0.0521 32:-1.3317 33:-1.0268 34:-0.7994 35:-0.5962 36:-0.2218 37:3.6589 38:2.7797 39:0.0398 
1 1:-7.2451 2:7.1392 3:-6.2796 4:0.0169 5:-4.5553 6:-0.6918 7:0.4018 8:-2.8096 9:-0.8007 10:-0.7849 11:0.5749 12:-0.5341 13:39.3168 14:3.773 15:-2.0302 16:0.1435 17:-2.0852 18:-0.1967 19:0.8636 20:-1.259 21:0.2588 22:-0.058 23:0.6308 24:-0.2598 25:48.7981 26:3.4674 27:1.1493 28:1.2913 29:0.437 30:0.6234 31:1.0534 32:-0.519 33:-0.3271 34:-0.1584 35:0.0244 36:-0.2218 37:1.7989 38:3.9013 39:2.5178 
1 1:-19.8012 2:6.2858 3:-3.0585 4:2.3713 5:-1.2739 6:0.0281 7:1.4643 8:-2.2495 9:0.3457 10:-0.4399 11:1.2123 12:-0.3785 13:20.2063 14:2.7774 15:-1.6174 16:1.6514 17:-0.2608 18:-0.0829 19:0.7625 20:-0.593 21:0.5342 22:0.0529 23:0.9368 24:-0.0874 25:31.6377 26:1.6265 27:0.2073 28:2.0679 29:0.2959 30:0.0537 31:0.5625 32:0.4268 33:0.8723 34:0.5773 35:0.3711 36:-0.2663 37:0.7822 38:2.6255 39:1.1026 
1 1:-4.6972 2:4.9363 3:-2.1688 4:3.7294 5:-1.0747 6:0.1364 7:1.5799 8:-1.2501 9:0.8791 10:-0.2199 11:1.4272 12:0.0067 13:36.5544 14:1.5698 15:-1.5648 16:1.5357 17:-0.9532 18:-0.2971 19:0.7388 20:-0.9847 21:-0.0565 22:-0.5496 23:0.4818 24:0.1241 25:43.7118 26:0.6858 27:-1.0837 28:1.0443 29:-0.3842 30:-0.737 31:0.0687 32:-0.3244 33:-0.111 34:0.06 35:-0.0408 36:0.4589 37:1.749 38:3.4184 39:1.8836 
1 1:-20.1453 2:6.1172 3:-1.5184 4:4.5731 5:-0.8301 6:0.3557 7:1.7602 8:-0.1664 9:0.5835 10:-0.0773 11:1.2779 12:0.4994 13:22.4776 14:3.278 15:-0.2518 16:2.3196 17:-0.2817 18:0.4913 19:0.7671 20:0.1289 21:0.2928 22:0.1933 23:0.6814 24:0.5089 25:32.0895 26:1.1177 27:0.1801 28:1.271 29:-0.108 30:-0.0704 31:0.2697 32:0.0599 33:-0.2618 34:0.1314 35:0.2499 36:0.5382 37:1.0196 38:2.6487 39:1.1982 
1 1:7.1363 2:6.8142 3:-1.7155 4:5.7487 5:0.6038 6:1.3265 7:1.5026 8:-0.4557 9:0.392 10:-0.739 11:0.0613 12:0.1462 13:42.5497 14:3.9263 15:-1.0777 16:3.2571 17:0.8373 18:1.0396 19:0.7442 20:-0.3655 21:0.3204 22:-0.6004 23:-0.4271 24:-0.2575 25:47.2479 26:1.1058 27:-1.1455 28:0.6537 29:0.2361 30:-0.0897 31:0.0219 32:-0.7833 33:0.0109 34:-0.563 35:-0.608 36:-0.2607 37:2.7901 38:3.5116 39:2.5397 
1 1:17.903 2:5.8246 3:-3.0796 4:4.8554 5:-0.1728 6:0.6009 7:0.2448 8:-1.6551 9:0.7235 10:-0.9267 11:-0.4755 12:-0.4724 13:38.1671 14:2.5159 15:-1.8302 16:2.0104 17:-0.9213 18:-0.4767 19:0.0357 20:-1.0156 21:0.4253 22:-0.4303 23:-0.157 24:-0.5302 25:40.1933 26:1.387 27:-0.6223 28:0.7726 29:-0.6637 30:-0.7421 31:0.1178 32:-0.3767 33:0.4876 34:0.1134 35:0.1459 36:-0.4266 37:3.2405 38:3.2779 39:2.1428 
1 1:7.5357 2:5.0538 3:-3.6599 4:3.3944 5:-0.8497 6:0.5839 7:1.1671 8:-1.3745 9:0.5788 10:-0.5957 11:0.394 12:0.0197 13:37.2041 14:2.5244 15:-2.0057 16:1.0579 17:-0.3745 18:0.9729 19:1.165 20:-0.4956 21:0.2573 22:-0.3609 23:0.3307 24:0.4555 25:42.9544 26:1.6594 27:-1.0866 28:-0.3222 29:-1.2246 30:0.2682 31:1.4866 32:0.1183 33:0.0252 34:-0.5173 35:0.0781 36:0.2987 37:2.5904 38:3.4953 39:2.4926 
1 1:-22.1364 2:4.8808 3:-4.0754 4:1.2946 5:-1.5712 6:1.5609 7:3.0989 8:-1.2987 9:0.2914 10:-0.5219 11:0.6083 12:0.7832 13:37.4621 14:1.7479 15:-1.7127 16:0.4913 17:-0.7876 18:0.6958 19:1.2779 20:-1.1664 21:0.2101 22:0.1838 23:0.5438 24:0.6183 25:54.8184 26:0.9442 27:-0.1716 28:-0.2474 29:-0.9455 30:0.8096 31:0.8217 32:-0.7651 33:0.081 34:0.0618 35:0.1565 36:0.6687 37:0.5948 38:4.0845 39:2.1316 
1 1:-19.7337 2:6.2634 3:-5.5713 4:0.2496 5:-2.0917 6:0.7977 7:1.9265 8:-1.5446 9:1.0447 10:0.3216 11:1.258 12:0.4043 13:32.287 14:5.2271 15:-3.7882 16:0.5668 17:-0.8669 18:0.198 19:0.3932 20:-0.3411 21:0.6961 22:0.1518 23:0.7614 24:-0.215 25:48.5102 26:3.8816 27:-2.2424 28:1.333 29:0.0162 30:0.3671 31:-0.6535 32:-0.409 33:0.2776 34:0.372 35:0.5536 36:-0.2111 37:0.7456 38:3.8087 39:1.8589 
1 1:-28.2928 2:9.5641 3:-6.2144 4:1.8711 5:-2.1277 6:-0.2018 7:0.3737 8:-2.1535 9:1.0002 10:-0.0179 11:1.0477 12:-1.0172 13:23.7836 14:4.1933 15:-2.7831 16:1.0543 17:-0.8329 18:-0.237 19:0.2793 20:-1.7202 21:0.5767 22:-0.1892 23:0.0619 24:-1.0527 25:35.7773 26:2.7551 27:-1.6919 28:1.162 29:-0.2504 30:-0.3059 31:-0.5589 32:-1.4022 33:0.3117 34:0.1511 35:-0.3006 36:-0.5966 37:0.4196 38:3.1031 39:0.9653 
1 1:-6.4833 2:10.3826 3:-5.2315 4:2.5746 5:-2.0465 6:-0.5985 7:0.1723 8:-1.9391 9:0.6426 10:-0.9678 11:0.0018 12:-0.7592 13:39.327 14:5.133 15:-2.4035 16:1.0957 17:-0.8385 18:-0.4095 19:0.3646 20:-0.4613 21:0.2914 22:-0.7707 23:0.2468 24:0.2207 25:42.092 26:1.5495 27:-1.4111 28:-0.1447 29:0.6315 30:-0.4561 31:0.297 32:-0.2869 33:0.3375 34:-0.4841 35:0.4009 36:0.3169 37:2.0342 38:3.2717 39:1.953 
1 1:-6.1657 2:8.2802 3:-5.815 4:1.1037 5:-2.3714 6:-1.6399 7:0.7105 8:-2.2715 9:0.1009 10:-1.028 11:1.0664 12:0.6561 13:34.311 14:4.0161 15:-2.8971 16:0.4677 17:-1.6274 18:-0.5631 19:0.611 20:-1.3577 21:-0.1597 22:-0.1106 23:1.1203 24:0.7118 25:44.0567 26:2.2547 27:-0.9965 28:-0.0078 29:-1.0239 30:-0.1553 31:0.7914 32:-0.9132 33:-0.0904 34:0.169 35:1.6566 36:0.4134 37:1.9384 38:3.5295 39:2.2484 
1 1:-98.2747 2:7.6957 3:-4.7564 4:4.3855 5:-2.3862 6:-0.1347 7:0.6939 8:-1.1854 9:-0.3862 10:-1.4735 11:0.1536 12:-0.3549 13:-11.843 14:4.1989 15:-0.9177 16:3.6005 17:-0.5232 18:0.6418 19:-0.1075 20:0.2615 21:-0.3476 22:-1.3929 23:-0.976 24:-0.9433 25:16.6974 26:3.2002 27:1.8443 28:2.5842 29:1.2596 30:1.4537 31:0.529 32:0.6494 33:0.2659 34:-0.546 35:-0.716 36:-0.8367 37:-3.8555 38:2.1615 39:0.1165 
1 1:-37.2475 2:7.774 3:-3.1578 4:6.1113 5:-0.3564 6:1.4751 7:0.6425 8:-0.0138 9:-0.0685 10:-1.0361 11:-0.7786 12:-1.1402 13:37.5851 14:3.3599 15:-2.9542 16:2.1489 17:-0.4245 18:0.2577 19:0.6605 20:-0.4467 21:0.0057 22:0.2668 23:0.1103 24:-0.2552 25:46.7967 26:2.8818 27:0.0655 28:-0.5853 29:0.8087 30:0.0431 31:1.2492 32:-1.0504 33:0.2186 34:0.6104 35:0.7403 36:-0.183 37:0.2943 38:3.5808 39:1.9006 
1 1:11.237 2:6.2416 3:-3.057 4:3.6813 5:0.0757 6:0.1954 7:1.108 8:-1.4653 9:0.1797 10:0.0498 11:1.0615 12:-0.0099 13:38.634 14:2.2066 15:-1.2591 16:1.569 17:-0.3529 18:-0.5414 19:-0.0143 20:-1.007 21:-0.0042 22:-0.2484 23:0.2924 24:0.2289 25:41.7813 26:0.5028 27:-0.7722 28:0.4999 29:-0.9301 30:-0.9202 31:-0.2832 32:-0.6914 33:-0.2046 34:0.1412 35:-0.1483 36:0.0041 37:2.9593 38:3.1922 39:2.1497 
1 1:18.1207 2:5.1493 3:-2.5769 4:3.9617 5:-1.1383 6:-0.3073 7:1.1235 8:-1.8188 9:-0.0401 10:-0.1922 11:1.403 12:0.1082 13:43.3141 14:2.8798 15:-1.2738 16:2.4154 17:-0.4508 18:0.1777 19:1.1146 20:-0.6763 21:0.1914 22:-0.4786 23:1.1178 24:-0.3305 25:45.6808 26:1.027 27:-0.4205 28:1.1551 29:-0.462 30:-0.1643 31:0.5997 32:-0.2785 33:-0.3213 34:-0.8608 35:0.212 36:-0.7064 37:3.0879 38:3.4921 39:2.4539 
1 1:-37.0734 2:5.8582 3:-4.6774 4:2.3895 5:-1.9443 6:-0.1098 7:1.5354 8:-0.8054 9:-0.0087 10:0.0761 11:0.4683 12:0.0391 13:32.2639 14:3.8992 15:-3.2338 16:0.5368 17:-1.2474 18:-0.1343 19:0.5101 20:-0.2333 21:-0.4304 22:0.19 23:-0.3548 24:0.2928 25:53.4353 26:2.6648 27:-2.4427 28:-0.1699 29:-0.6698 30:-0.4489 31:0.0159 32:-0.2524 33:-0.4865 34:-0.2589 35:-0.1108 36:0.1637 37:-0.4777 38:4.1321 39:2.203 
1 1:-40.8754 2:6.2685 3:-6.5869 4:0.9709 5:-2.0929 6:-0.2535 7:0.3016 8:-1.425 9:-0.2485 10:-0.6692 11:-0.3697 12:0.2791 13:24.8094 14:2.7043 15:-2.8903 16:0.9322 17:-0.7203 18:0.2621 19:0.1482 20:-1.2402 21:0.3798 22:-0.4745 23:-0.1064 24:0.1646 25:48.5984 26:1.79 27:-1.0918 28:1.4399 29:-0.0563 30:0.8364 31:-0.457 32:-1.1086 33:-0.078 34:-0.7951 35:-0.3381 36:0.3983 37:-0.5769 38:3.7342 39:0.7898 
1 1:-11.7643 2:6.8562 3:-6.4637 4:2.6107 5:-3.5271 6:-0.9918 7:0.4329 8:-1.6131 9:-0.5049 10:-1.5027 11:-0.2073 12:-0.2292 13:39.3394 14:3.5033 15:-3.4689 16:1.4953 17:-2.3083 18:-0.902 19:0.8592 20:-0.0003 21:-0.118 22:-0.3055 23:0.2122 24:-0.4247 25:47.4653 26:2.44 27:-2.0655 28:1.5134 29:-1.1567 30:-0.0794 31:1.1596 32:0.4886 33:0.4967 34:-0.054 35:0.0794 36:-0.2944 37:1.3564 38:3.6562 39:1.8823 
1 1:-25.6764 2:6.0199 3:-6.2411 4:3.3002 5:-3.5129 6:-1.6033 7:1.5088 8:-1.4468 9:-0.2475 10:-1.0768 11:0.0382 12:-0.7089 13:31.747 14:2.0627 15:-2.6544 16:1.254 17:-1.7354 18:-0.6308 19:0.2178 20:-1.2884 21:-0.4845 22:-0.9792 23:0.0111 24:-0.3112 25:46.4277 26:-0.3147 27:-0.4838 28:0.7813 29:-0.4061 30:0.5071 31:-0.1628 32:-1.1028 33:0.0268 34:-0.8657 35:0.8534 36:-0.6384 37:0.3084 38:3.5226 39:1.6257 
1 1:-21.9166 2:5.256 3:-3.4144 4:3.8688 5:-1.4785 6:-0.1324 7:0.2469 8:-1.9128 9:-0.6232 10:-1.4675 11:-0.7564 12:-0.2113 13:25.6572 14:4.0286 15:-1.6596 16:2.976 17:0.3587 18:-0.1238 19:-0.2315 20:-1.1222 21:-0.8858 22:-0.778 23:-0.7164 24:0.585 25:35.5607 26:2.7912 27:-0.828 28:1.9769 29:0.3217 30:0.3428 31:-0.1354 32:-0.313 33:-0.6173 34:-0.5321 35:-0.146 36:0.6883 37:0.6638 38:3.045 39:1.2154 
1 1:-50.7924 2:6.3299 3:-3.3605 4:3.3982 5:-0.0442 6:0.3521 7:-0.2621 8:-1.163 9:-0.1384 10:-0.8855 11:-0.2325 12:-0.2017 13:25.3009 14:3.329 15:-1.4196 16:0.8531 17:-0.4373 18:0.519 19:0.5392 20:0.0556 21:0.8511 22:0.1572 23:0.0309 24:-0.6424 25:41.6753 26:3.6884 27:-1.2313 28:1.0179 29:-0.1632 30:-0.0645 31:0.9268 32:0.0487 33:0.4967 34:0.172 35:0.2065 36:0.1864 37:-1.0603 38:3.4214 39:1.7026 
1 1:-48.7055 2:8.0898 3:-5.4872 4:0.6009 5:-0.6685 6:-1.3151 7:0.453 8:-1.5935 9:0.5796 10:-1.042 11:0.8584 12:-0.525 13:31.0723 14:3.712 15:-3.2118 16:-0.608 17:-1.0949 18:-1.7399 19:-0.4818 20:-1.6149 21:0.1834 22:-1.1726 23:0.9021 24:-0.2452 25:56.5702 26:3.0665 27:-1.0351 28:-0.2697 29:-2.3064 30:-1.0137 31:-0.0586 32:-1.1381 33:0.1587 34:-1.1932 35:0.1148 36:-0.2031 37:-0.923 38:4.3218 39:1.8659 
1 1:-29.8501 2:8.7245 3:-5.566 4:-0.3496 5:-2.5779 6:-2.9372 7:0.6316 8:-2.6601 9:0.5727 10:-1.4913 11:0.3934 12:0.0066 13:32.5677 14:4.376 15:-2.9341 16:0.0447 17:-0.926 18:-1.5751 19:0.7457 20:-1.1932 21:0.1103 22:-0.3635 23:-0.2746 24:0.2928 25:54.3529 26:1.9831 27:-1.5342 28:0.2391 29:-1.247 30:-1.7387 31:0.5325 32:-0.8698 33:-0.1214 34:0.1674 35:-0.266 36:0.4058 37:0.2586 38:4.1321 39:1.8548 
1 1:-25.4104 2:5.0007 3:-7.2577 4:-0.5754 5:-2.9241 6:-2.7608 7:1.367 8:-2.1619 9:0.8115 10:-0.0186 11:-0.109 12:0.1391 13:35.2347 14:0.8168 15:-4.4223 16:-0.8057 17:-1.6867 18:-0.7537 19:0.6768 20:-0.9373 21:0.7241 22:0.2379 23:-0.226 24:-0.043 25:50.5879 26:0.3435 27:-2.9434 28:-0.9431 29:-1.0373 30:-0.4985 31:0.1821 32:-0.2295 33:0.5109 34:0.2487 35:-0.4449 36:0.3352 37:0.3875 38:3.8878 39:2.0027 
0.54777588468746197 1:-30.7514 2:2.8782 3:-7.2483 4:-1.7202 5:-2.6675 6:-1.8823 7:0.9541 8:-1.0734 9:0.6379 10:0.1787 11:0.1569 12:0.0219 13:35.6125 14:2.2338 15:-2.4695 16:-0.5724 17:-1.2907 18:-0.7183 19:0.3291 20:-0.2349 21:-0.0377 22:0.0756 23:0.4904 24:0.2478 25:52.2669 26:1.8815 27:-0.6761 28:-0.1356 29:-0.4373 30:0.4395 31:-0.2682 32:-0.1955 33:-0.1373 34:0.129 35:-0.3078 36:0.5748 37:-0.0409 38:4.0086 39:1.8983 
0.96793370518919819 1:-34.8471 2:5.9715 3:-5.8324 4:-1.5909 5:-3.2543 6:-1.8192 7:-0.361 8:-2.252 9:0.2234 10:-0.9732 11:-0.1146 12:-0.6079 13:34.2534 14:4.0344 15:-3.168 16:-0.574 17:-1.4327 18:-0.6896 19:-0.0717 20:-1.4818 21:0.1471 22:-1.0831 23:-0.5442 24:-0.7824 25:53.0684 26:3.6577 27:-1.5918 28:0.3507 29:-1.0843 30:0.5363 31:-0.0657 32:-0.7642 33:0.0675 34:-0.5 35:-0.9295 36:-0.3691 37:-0.1011 38:4.2904 39:2.4916 
1 1:-58.9112 2:6.0629 3:-6.2354 4:-0.2706 5:-3.6834 6:-1.6795 7:0.0865 8:-3.2404 9:-0.396 10:-1.505 11:-0.9143 12:-0.5808 13:19.7801 14:1.5211 15:-3.5916 16:0.2162 17:-1.7427 18:-1.1709 19:0.0612 20:-1.7317 21:-0.6983 22:-0.5469 23:-0.5441 24:-0.1867 25:44.703 26:0.485 27:-1.9841 28:1.104 29:-0.7456 30:0.2097 31:0.2746 32:-0.5863 33:-1.1279 34:-0.5871 35:-0.8709 36:0.2543 37:-1.823 38:3.3523 39:0.6879 
1 1:-56.7938 2:6.9218 3:-5.3409 4:1.1494 5:-1.7863 6:-2.027 7:0.0821 8:-3.4036 9:-0.4187 10:-0.6085 11:-0.3592 12:0.0288 13:33.8165 14:4.8617 15:-2.0656 16:0.2785 17:-0.8072 18:-1.4694 19:-0.0026 20:-1.6267 21:0.1593 22:0.1569 23:0.2393 24:0.0083 25:55.8437 26:2.2955 27:-0.903 28:0.2739 29:0.1722 30:-0.8658 31:0.1353 32:-0.5337 33:-0.0061 34:0.7761 35:0.2092 36:0.6452 37:-1.7985 38:4.2915 39:2.318 
1 1:-46.6701 2:7.5658 3:-4.9559 4:0.7523 5:-0.1588 6:-1.6957 7:0.5712 8:-3.093 9:-0.0296 10:-0.2074 11:0.4468 12:-0.4341 13:28.8161 14:2.1211 15:-2.9532 16:0.1086 17:0.2024 18:-0.2509 19:0.2352 20:-1.415 21:0.1892 22:-0.4289 23:0.1023 24:-0.5965 25:57.5365 26:-0.3456 27:-1.9833 28:-0.759 29:-0.064 30:-0.233 31:0.0222 32:-0.5205 33:0.0536 34:-0.0817 35:-0.0254 36:-0.4937 37:-1.0572 38:4.2037 39:1.4538 
1 1:-40.1544 2:4.7333 3:-4.9846 4:0.0507 5:-1.1291 6:-0.7707 7:1.1047 8:-1.4781 9:0.4871 10:-0.3248 11:0.5164 12:-0.2074 13:27.7521 14:2.7775 15:-2.2854 16:0.2417 17:-0.8771 18:-0.4558 19:0.5901 20:-0.4445 21:0.5563 22:0.2545 23:0.5647 24:0.5034 25:46.9243 26:0.3902 27:-1.4853 28:-0.1968 29:-0.457 30:-0.0371 31:-0.2576 32:-0.5341 33:0.8325 34:0.346 35:0.0593 36:0.2863 37:-0.7268 38:3.5864 39:1.779 
1 1:-51.836 2:4.6778 3:-5.2845 4:0.5589 5:-2.359 6:-0.0448 7:1.171 8:-1.0857 9:0.8665 10:-0.3247 11:0.1927 12:-0.166 13:31.3688 14:3.1879 15:-2.2781 16:0.403 17:-1.1321 18:0.1873 19:0.6931 20:-0.7977 21:0.1096 22:-0.7047 23:-0.1524 24:-0.5892 25:48.9485 26:2.0345 27:-1.0891 28:0.2872 29:-0.1311 30:0.4835 31:0.264 32:-1.0938 33:-0.0912 34:-0.6296 35:0.1041 36:-0.387 37:-1.4734 38:3.73 39:1.7949 
0.78614583696944473 1:-30.066 2:5.9077 3:-5.478 4:-0.2255 5:-2.3966 6:-0.41 7:1.0515 8:-1.0743 9:-0.2587 10:-1.0308 11:0.1162 12:-0.809 13:38.5496 14:2.8685 15:-2.9319 16:-0.9066 17:-1.5203 18:-0.5246 19:0.2273 20:-0.1645 21:-0.3627 22:-0.2622 23:0.2697 24:-0.0736 25:53.9527 26:1.5562 27:-0.7388 28:-0.634 29:-0.3823 30:-0.5808 31:-0.073 32:-0.0352 33:0.199 34:0.3836 35:0.3702 36:-0.2397 37:0.0047 38:4.044 39:2.0183 
0.45801811699188011 1:-41.746 2:7.241 3:-5.1818 4:-0.8141 5:-2.57 6:-0.8606 7:0.523 8:-1.6391 9:-0.8639 10:-1.2782 11:0.5145 12:-0.3975 13:31.2141 14:3.6671 15:-2.7912 16:-0.0109 17:-1.4572 18:-0.0123 19:0.4977 20:-1.2359 21:-0.6247 22:-1.189 23:0.1168 24:-0.4041 25:53.0035 26:2.0538 27:-1.4456 28:-0.0551 29:-1.327 30:0.3088 31:0.3048 32:-0.7607 33:-0.5163 34:-0.2531 35:0.4615 36:0.1791 37:-0.678 38:4.0978 39:1.8913 
1 1:-43.8743 2:7.4943 3:-5.556 4:0.631 5:-2.3862 6:-1.0774 7:1.5044 8:-2.5368 9:-0.6007 10:-1.7409 11:0.7902 12:-0.8606 13:26.7725 14:3.6744 15:-2.1524 16:1.0336 17:-1.0135 18:-0.8203 19:1.1139 20:-1.5262 21:0.1323 22:-0.3899 23:0.5701 24:-0.5113 25:49.8844 26:1.65 27:-0.4705 28:0.9695 29:-0.7089 30:-0.1001 31:1.0231 32:-1.0571 33:-0.1369 34:-0.146 35:0.0481 36:-0.9557 37:-0.7795 38:3.8925 39:1.4039 
1 1:-42.1993 2:9.3007 3:-4.4876 4:0.9876 5:-2.344 6:-0.6964 7:2.3057 8:-2.5466 9:-1.0792 10:-2.6589 11:0.4015 12:-1.3053 13:32.6721 14:5.7136 15:-1.9451 16:0.2056 17:-1.1538 18:-0.1597 19:1.0777 20:-1.2008 21:-0.874 22:-1.9577 23:-0.2954 24:-0.352 25:53.0965 26:3.2621 27:0.1827 28:0.5634 29:-0.8069 30:0.8414 31:0.6733 32:-0.6189 33:-0.4884 34:-0.894 35:-0.1447 36:0.3545 37:-0.4326 38:4.2765 39:2.2169 
1 1:-49.144 2:9.9431 3:-3.0529 4:2.179 5:-1.705 6:0.2693 7:1.6229 8:-2.5015 9:-1.6821 10:-2.7688 11:0.2504 12:-0.5006 13:23.4738 14:3.9179 15:-1.6596 16:1.4861 17:-0.2643 18:0.0146 19:0.5698 20:-0.6075 21:-0.6162 22:-0.8037 23:0.8488 24:-0.1001 25:47.0021 26:1.1769 27:-0.2973 28:1.3992 29:0.5993 30:-0.095 31:-0.1027 32:0.3638 33:0.3762 34:0.305 35:0.846 36:0.4547 37:-0.8095 38:3.6452 39:1.603 
1 1:-37.0734 2:8.1178 3:-1.8481 4:2.7692 5:-0.6545 6:0.3368 7:0.1784 8:-1.5305 9:-0.9164 10:-1.7082 11:1.4166 12:0.0129 13:26.7625 14:4.0109 15:-0.8374 16:0.7665 17:-0.2983 18:0.1717 19:-0.3535 20:-1.0736 21:-0.0824 22:-0.5828 23:0.7508 24:-0.11 25:40.7299 26:1.1819 27:-0.8324 28:-0.5585 29:-0.23 30:-0.0188 31:-0.6883 32:0.0413 33:0.7484 34:0.5539 35:0.8257 36:0.4317 37:-0.2401 38:3.1672 39:1.3537 
1 1:-15.4943 2:8.2697 3:-1.3442 4:1.8081 5:-1.6435 6:-0.0281 7:-0.5453 8:-1.5159 9:-0.2431 10:-1.4941 11:1.5406 12:0.2166 13:33.6659 14:4.3175 15:-0.461 16:1.7103 17:-1.5669 18:-0.0555 19:-0.1174 20:-0.884 21:-0.3587 22:-1.0383 23:0.7136 24:0.0498 25:40.9362 26:2.1051 27:-0.679 28:0.5202 29:-0.7956 30:-0.2485 31:-0.3077 32:-0.3069 33:0.0819 34:-0.2048 35:0.3174 36:-0.4367 37:1.1883 38:3.2568 39:2.215 
1 1:-10.7263 2:9.5885 3:-2.2078 4:2.263 5:-1.6812 6:-0.6206 7:-0.6041 8:-2.0525 9:-0.0052 10:-1.1458 11:0.9926 12:0.2961 13:33.7527 14:5.6763 15:-1.7979 16:0.6635 17:-0.1212 18:-0.4385 19:-0.3684 20:-1.3553 21:-0.2231 22:-0.625 23:-0.0705 24:0.1294 25:45.1277 26:3.2878 27:-1.3609 28:0.1798 29:0.3952 30:-0.3686 31:-0.2228 32:-0.8142 33:-0.03 34:0.0838 35:-0.1753 36:-0.0867 37:1.647 38:3.6834 39:2.2762 
1 1:-27.4352 2:11.3411 3:-7.6798 4:1.3218 5:-0.7773 6:-0.7467 7:0.6043 8:-1.8911 9:-0.3243 10:-0.4336 11:0.3891 12:0.4823 13:28.0499 14:4.8028 15:-6.2922 16:0.067 17:-0.2667 18:-0.44 19:0.3938 20:-0.6559 21:-0.1332 22:0.0039 23:0.6248 24:0.7286 25:44.6142 26:1.5909 27:-5.8682 28:-1.0289 29:0.1142 30:-0.3716 31:0.6668 32:-0.545 33:-0.4991 34:-0.0808 35:0.3241 36:0.6856 37:0.7154 38:3.5723 39:1.5652 
1 1:-16.619 2:10.1197 3:-9.1339 4:0.3974 5:-1.1844 6:-0.299 7:1.8586 8:-1.2071 9:-0.1266 10:-1.165 11:0.0013 12:0.6406 13:28.0612 14:5.0677 15:-1.6996 16:1.0681 17:-1.018 18:0.2443 19:1.4273 20:-0.0772 21:0.6505 22:-0.7637 23:-0.3388 24:-0.1535 25:37.349 26:1.2209 27:0.8643 28:0.7194 29:-0.1868 30:0.6572 31:0.5506 32:0.0821 33:0.8802 34:-0.1251 35:0.5106 36:0.3159 37:1.3367 38:2.9448 39:1.4253 
1 1:-4.0844 2:7.2536 3:-3.6079 4:2.0307 5:-1.6527 6:-0.3819 7:0.2372 8:-0.9774 9:0.7467 10:-1.0123 11:0.6367 12:0.0566 13:37.8459 14:4.2288 15:-1.8632 16:1.1878 17:-0.9394 18:-0.3415 19:-0.739 20:-0.7721 21:-0.2454 22:-0.1199 23:0.369 24:0.1192 25:40.8971 26:2.9748 27:-0.417 28:1.5406 29:-0.2002 30:-0.1968 31:-1.2184 32:-0.0583 33:-0.1426 34:0.9066 35:0.0739 36:0.1516 37:1.8141 38:3.2488 39:2.1806 
1 1:-0.9697 2:4.3685 3:-2.3866 4:3.5189 5:-0.7193 6:-0.4344 7:0.7363 8:-1.3261 9:0.9512 10:-0.6097 11:-0.3441 12:-0.9128 13:40.3065 14:-0.382 15:-1.1675 16:2.0614 17:0.0814 18:-0.095 19:1.1443 20:-0.7798 21:0.7055 22:-0.748 23:-0.5677 24:-0.8446 25:48.5953 26:-0.4567 27:-1.0666 28:1.473 29:0.4028 30:0.2923 31:0.8295 32:-0.3179 33:0.3931 34:-0.5784 35:-0.9802 36:-0.2056 37:1.9218 38:3.7448 39:2.1786 
1 1:-26.8864 2:1.3219 3:-4.4067 4:2.9862 5:-1.261 6:-0.4667 7:1.0334 8:-1.4356 9:0.1565 10:-0.771 11:-0.3981 12:-0.74 13:31.8262 14:1.8352 15:-3.3065 16:0.7778 17:-1.3406 18:-0.6202 19:0.3215 20:-0.846 21:-0.395 22:-0.691 23:0.3629 24:0.2622 25:51.7918 26:1.3994 27:-2.5608 28:0.4059 29:-1.2818 30:-0.4644 31:-0.1935 32:-0.9238 33:-0.6148 34:-0.8201 35:0.3109 36:0.6841 37:0.1692 38:3.8925 39:2.0613 
0.86683135942171641 1:-27.016 2:3.0123 3:-5.9222 4:2.7536 5:-2.5291 6:-1.8977 7:-0.499 8:-1.922 9:-0.9117 10:-0.4197 11:-0.0615 12:-0.5109 13:35.1361 14:2.1244 15:-2.4824 16:1.9864 17:-1.0038 18:-1.3896 19:-0.6373 20:-1.042 21:-0.6798 22:0.1118 23:-0.3354 24:-0.6754 25:55.0389 26:2.2204 27:-1.5887 28:1.4023 29:-0.6845 30:-1.0633 31:-0.144 32:-1.2474 33:-0.9453 34:-0.5182 35:-0.4116 36:-0.2287 37:0.1645 38:4.2372 39:1.9394 
1 1:-18.8195 2:4.8455 3:-5.1825 4:3.141 5:-0.7348 6:-1.7737 7:-0.3127 8:-1.9988 9:-0.9467 10:-1.4838 11:-0.0836 12:-0.426 13:34.6302 14:1.9424 15:-2.4509 16:0.8228 17:0.0893 18:-0.4122 19:-0.0611 20:-0.7216 21:-0.2022 22:-1.1803 23:-0.2374 24:-0.1175 25:47.5998 26:0.7994 27:-1.0664 28:0.3236 29:0.4772 30:0.2419 31:-0.1573 32:-0.2214 33:-0.5316 34:-1.1065 35:-0.1105 36:0.4901 37:0.6816 38:3.6017 39:1.7615 
1 1:-41.1502 2:4.9912 3:-4.8726 4:1.727 5:-0.7299 6:-0.6986 7:-0.626 8:-2.4269 9:-0.4524 10:-2.2117 11:-0.0286 12:-0.2484 13:25.1829 14:2.2794 15:-2.8247 16:0.8891 17:-0.788 18:0.0163 19:-0.6428 20:-2.012 21:-0.1282 22:-0.8624 23:0.0294 24:-0.2098 25:42.5074 26:1.0562 27:-2.2707 28:-0.6138 29:-1.1014 30:0.1901 31:-0.8813 32:-1.8078 33:-0.0889 34:-0.7147 35:-1.0319 36:0.1029 37:-0.7953 38:3.3262 39:1.4729 
1 1:-48.4864 2:5.2683 3:-4.9359 4:2.3352 5:-2.3681 6:-1.4698 7:-0.2666 8:-3.7146 9:0.112 10:-1.4985 11:-0.3794 12:-0.5733 13:19.428 14:3.0208 15:-2.2009 16:2.0935 17:-1.317 18:-1.65 19:0.4349 20:-1.6758 21:0.4911 22:-0.3529 23:0.3288 24:-0.5287 25:35.0802 26:1.1618 27:-0.6258 28:1.9327 29:-0.0491 30:-0.8352 31:0.5305 32:-0.8574 33:0.4926 34:-0.1539 35:0.3009 36:-0.1901 37:-1.1974 38:2.8668 39:1.374 
1 1:-56.078 2:7.0421 3:-4.4535 4:2.554 5:-1.8808 6:-1.2136 7:0.461 8:-3.3149 9:0.3197 10:-0.4294 11:0.6229 12:-0.3178 13:25.3024 14:4.6024 15:-2.326 16:0.0196 17:-0.9127 18:0.3757 19:0.0815 20:-1.2684 21:-0.4779 22:-0.2846 23:0.3957 24:0.11 25:52.3473 26:3.4114 27:-1.8552 28:-0.7023 29:-0.3269 30:0.4599 31:0.2898 32:-0.4935 33:-0.5228 34:-0.0291 35:0.7896 36:0.3952 37:-1.6086 38:4.191 39:2.4525 
1 1:-78.0508 2:8.8355 3:-6.8626 4:-0.2095 5:-1.8869 6:-1.7487 7:0.3365 8:-2.04 9:0.3529 10:-0.2851 11:0.1581 12:-0.1655 13:12.4845 14:3.7592 15:-3.6427 16:-0.1153 17:-0.9816 18:-1.5898 19:0.4142 20:-0.7154 21:0.6524 22:-0.058 23:-0.5261 24:-0.364 25:49.7449 26:1.678 27:-2.3732 28:-0.5767 29:-1.0377 30:-0.9523 31:0.2871 32:-0.3437 33:-0.0808 34:-0.3982 35:-0.6028 36:-0.5376 37:-2.8874 38:3.8948 39:1.1767 
1 1:-57.4331 2:2.9839 3:-9.0515 4:1.4246 5:-1.9276 6:-2.1058 7:0.1148 8:-1.8144 9:-0.5345 10:-1.133 11:-0.3876 12:-0.9407 13:21.0486 14:-0.8839 15:-5.0165 16:1.9919 17:-0.6895 18:-0.9374 19:0.038 20:-1.0801 21:-0.9599 22:-1.0098 23:-0.1553 24:-0.6929 25:44.4404 26:-3.2317 27:-2.3313 28:1.9555 29:0.0681 30:-0.5171 31:0.3003 32:-0.6283 33:-0.7395 34:-0.6827 35:0.0801 36:-0.5143 37:-1.586 38:3.5062 39:1.7979 
1 1:-74.1013 2:-2.0672 3:-11.4257 4:1.9795 5:-1.6873 6:-1.3199 7:-0.0144 8:-1.6435 9:-1.3365 10:-1.7563 11:-0.551 12:-0.6885 13:29.5094 14:-0.2044 15:-6.573 16:-0.2851 17:-0.9133 18:-0.6612 19:-0.2671 20:-0.4988 21:-0.1795 22:-1.0894 23:-0.5566 24:0.3707 25:58.1979 26:-0.0656 27:-4.3984 28:-0.6755 29:-0.7391 30:-0.5953 31:0.0218 32:-0.3936 33:-0.247 34:-1.1641 35:-1.0993 36:0.5343 37:-2.7181 38:4.5104 39:2.4716 
1 1:-63.3146 2:2.7298 3:-12.1745 4:-0.801 5:-3.3695 6:-1.829 7:0.0231 8:-1.4957 9:-0.4653 10:-1.8003 11:-0.8497 12:-0.2782 13:24.5555 14:3.2493 15:-5.3301 16:-0.7653 17:-2.5574 18:-0.6552 19:0.2952 20:-0.9618 21:-0.1044 22:-0.6713 23:-0.118 24:-0.3202 25:55.5316 26:3.6004 27:-1.9134 28:-0.2108 29:-1.8678 30:-0.271 31:0.316 32:-0.1944 33:0.4257 34:-0.5734 35:-0.4335 36:0.1544 37:-1.8868 38:4.3129 39:1.4132 
1 1:-66.5226 2:7.9186 3:-9.1667 4:-2.0936 5:-5.4373 6:-1.9626 7:-0.3624 8:-2.2515 9:-0.4845 10:-1.506 11:-0.5074 12:-0.3388 13:19.0774 14:4.1698 15:-3.0379 16:-0.2275 17:-2.4369 18:-1.1815 19:-0.1882 20:-1.7346 21:-0.7301 22:-0.7328 23:-0.2148 24:-0.0582 25:43.8632 26:2.0989 27:0.0685 28:0.3318 29:-0.9715 30:0.1371 31:0.7236 32:-0.8613 33:-0.9776 34:-0.3015 35:0.0444 36:0.4762 37:-1.958 38:3.4531 39:1.2769 
1 1:-47.9015 2:11.3718 3:-4.0121 4:-0.1011 5:-5.0352 6:-1.3647 7:-0.4521 8:-2.0505 9:-1.2164 10:-0.8876 11:0.1341 12:0.2008 13:21.5322 14:6.8681 15:-1.0093 16:0.4138 17:-2.1814 18:-0.7557 19:-0.7438 20:-0.4602 21:-0.2561 22:-0.3024 23:0.2701 24:0.2515 25:44.9419 26:4.531 27:2.0151 28:1.7282 29:0.1074 30:-0.3498 31:-0.0207 32:-0.4038 33:0.3687 34:-0.0634 35:0.2957 36:0.2693 37:-0.3882 38:3.8826 39:1.8639 
1 1:-82.4465 2:17.0746 3:2.7418 4:2.772 5:-3.2998 6:-1.3934 7:0.466 8:-1.5966 9:-0.8079 10:-0.6412 11:1.3751 12:0.4491 13:3.0366 14:7.8863 15:0.2529 16:0.6884 17:-1.728 18:-0.5801 19:0.5338 20:-1.0573 21:-0.3465 22:-0.4232 23:0.7228 24:-0.295 25:29.0342 26:3.1673 27:-0.5436 28:-0.1269 29:-0.5882 30:-0.2946 31:0.2687 32:-1.0098 33:0.0529 34:-0.6629 35:0.151 36:-0.3518 37:-1.8783 38:2.6026 39:0.356 
1 1:-60.3132 2:13.7967 3:0.3084 4:0.8806 5:-3.8781 6:-0.766 7:1.4018 8:-1.3626 9:-0.2549 10:-1.2693 11:0.3761 12:-0.7506 13:28.5308 14:5.5412 15:0.5318 16:0.3152 17:-2.1218 18:0.1384 19:1.1787 20:-0.24 21:-0.2302 22:-0.6087 23:0.2054 24:-0.499 25:49.6982 26:-1.5389 27:-1.8461 28:-0.9079 29:-0.9617 30:1.0582 31:0.8403 32:-0.1057 33:-0.134 34:-0.6431 35:-0.3377 36:-0.9943 37:-0.6472 38:3.3336 39:1.629 
1 1:-67.6118 2:8.8878 3:-0.5827 4:1.0448 5:-5.4185 6:-0.4993 7:1.868 8:-1.95 9:0.9067 10:-2.7241 11:1.4406 12:-1.6473 13:13.3659 14:6.6016 15:1.0776 16:1.6519 17:-3.2626 18:-0.601 19:0.9593 20:-1.5079 21:0.5177 22:-1.746 23:1.2558 24:-0.9495 25:41.8666 26:6.35 27:3.5239 28:2.3791 29:-2.1682 30:-0.2239 31:1.2125 32:-1.3287 33:0.0517 34:-1.038 35:1.5234 36:-0.4343 37:-1.8949 38:3.7759 39:2.74 
1 1:-66.1511 2:8.0556 3:4.0256 4:6.724 5:-5.6856 6:-1.7811 7:2.4828 8:-3.3866 9:0.6247 10:-2.2693 11:3.3653 12:-0.4873 13:18.8203 14:1.1981 15:1.845 16:4.6893 17:-2.9604 18:-1.6701 19:0.7709 20:-2.1042 21:0.2759 22:-0.5999 23:1.426 24:0.266 25:51.4913 26:0.5573 27:1.0727 28:3.7542 29:-1.9068 30:-1.2121 31:-0.2279 32:-1.7206 33:-0.7255 34:0.2612 35:-0.0984 36:0.3462 37:-1.7648 38:4.1164 39:1.67 
1 1:-28.019 2:4.0829 3:3.1676 4:9.6045 5:-6.3387 6:-1.3707 7:2.6002 8:-3.3434 9:-0.4932 10:-0.7905 11:3.2644 12:0.3114 13:35.5044 14:2.1668 15:0.4591 16:3.8519 17:-3.4142 18:-0.2068 19:1.4518 20:-1.2545 21:-0.2276 22:-0.438 23:2.4242 24:0.7286 25:51.8031 26:1.028 27:-0.873 28:1.5083 29:-2.4925 30:-0.6363 31:-0.1172 32:-0.8447 33:-0.3889 34:-0.7768 35:1.0131 36:0.5884 37:0.6719 38:4.0582 39:2.1843 
1 1:-21.2584 2:5.44 3:0.6817 4:6.7952 5:-6.16 6:-0.3169 7:2.4855 8:-2.7587 9:0.4983 10:-1.5571 11:1.9935 12:0.2182 13:36.5629 14:3.9245 15:0.0633 16:2.7491 17:-2.1696 18:0.115 19:1.7667 20:-0.8098 21:0.5413 22:-0.7234 23:-0.3017 24:-0.3126 25:50.9079 26:3.1377 27:-1.1626 28:-0.0999 29:-0.2215 30:-0.2308 31:0.728 32:0.2523 33:0.8145 34:-0.4535 35:-0.4431 36:0.1444 37:1.0326 38:3.8535 39:2.0993 
1 1:-51.3541 2:11.5361 3:-4.1584 4:3.134 5:-6.2064 6:-1.3424 7:1.1128 8:-3.2916 9:0.8892 10:-2.5263 11:0.518 12:-0.5878 13:20.8852 14:6.8351 15:-3.599 16:0.9243 17:-4.4922 18:-1.2755 19:-0.3187 20:-2.0016 21:0.4732 22:-1.9794 23:0.542 24:-0.6801 25:43.591 26:4.4012 27:-2.7362 28:0.1767 29:-2.8648 30:-1.6228 31:-0.7935 32:-0.7936 33:-0.015 34:-1.6068 35:-0.0909 36:-0.8004 37:-0.7783 38:3.7348 39:1.765 
1 1:-42.6036 2:14.6442 3:-4.2948 4:3.6241 5:-6.4722 6:-2.5139 7:0.0225 8:-3.4138 9:0.1921 10:-2.7178 11:1.1299 12:-1.2869 13:28.1055 14:7.3459 15:0.2673 16:2.616 17:-2.362 18:-0.8944 19:-0.1377 20:-1.882 21:-0.1813 22:-0.5895 23:0.6723 24:-0.7486 25:46.8159 26:3.956 27:1.9779 28:1.6199 29:-2.0164 30:-0.7607 31:-0.3585 32:-0.6319 33:-0.5782 34:-0.171 35:-0.2873 36:-0.3628 37:0.2357 38:4.0683 39:1.9599 
1 1:-17.843 2:13.081 3:-0.5569 4:5.2764 5:-5.3017 6:-1.623 7:0.9198 8:-2.6125 9:0.5724 10:-1.6896 11:1.4593 12:-0.4892 13:37.6232 14:5.9637 15:-0.6097 16:2.7112 17:-2.5381 18:-0.8131 19:1.008 20:-1.115 21:0.7811 22:-0.7887 23:0.5533 24:0.2736 25:48.5183 26:2.0081 27:0.6217 28:1.2633 29:-1.3658 30:-0.759 31:0.3236 32:-0.2807 33:1.1247 34:0.3486 35:-0.2802 36:0.6088 37:1.7871 38:3.8311 39:2.4331 
0.76483472490883708 1:-21.2877 2:11.6144 3:-1.1455 4:4.835 5:-5.0707 6:-2.1594 7:1.9345 8:-1.6717 9:1.9092 10:-1.2048 11:0.8776 12:-0.6336 13:32.5986 14:5.7547 15:-0.8103 16:2.8596 17:-2.1876 18:-1.4555 19:1.0803 20:-0.4624 21:0.9176 22:-0.8799 23:0.5952 24:-0.6762 25:47.6673 26:2.9275 27:-0.1274 28:2.2253 29:-0.7289 30:-1.4663 31:0.4082 32:0.2215 33:0.7205 34:-0.2079 35:-0.066 36:-0.2686 37:1.3097 38:3.8765 39:2.0472 
0.6803548528825758 1:-15.3369 2:9.2433 3:-2.6031 4:4.818 5:-4.8759 6:-3.3039 7:2.0408 8:-2.0224 9:1.9861 10:-2.1081 11:-0.1642 12:-1.2604 13:35.4747 14:3.6973 15:-1.8254 16:1.9375 17:-2.86 18:-1.8715 19:0.8994 20:-1.8934 21:0.7267 22:-1.3312 23:-0.0966 24:-0.6305 25:47.4363 26:1.1796 27:-1.0039 28:1.2388 29:-1.5469 30:-1.2216 31:0.0258 32:-1.5994 33:-0.2457 34:-0.8475 35:0.2154 36:-0.1246 37:1.4421 38:3.6764 39:2.1027 
1 1:-24.9882 2:7.4561 3:-4.6071 4:3.9833 5:-4.5157 6:-3.1543 7:2.1627 8:-3.4415 9:0.8787 10:-2.4291 11:-0.5822 12:-1.1623 13:31.0122 14:3.904 15:-2.787 16:1.4017 17:-2.7026 18:-1.5407 19:1.2138 20:-1.481 21:0.5942 22:-0.818 23:-0.0826 24:-0.644 25:44.3798 26:2.0802 27:-1.5531 28:0.2083 29:-2.114 30:-1.3542 31:0.4212 32:-0.9399 33:0.3471 34:0.0689 35:0.2494 36:-0.5361 37:0.6025 38:3.5737 39:1.6709 
0.94822766773879696 1:-19.6686 2:7.4651 3:-4.2278 4:4.9036 5:-3.7761 6:-3.4203 7:2.258 8:-2.8942 9:1.3659 10:-1.194 11:-0.3055 12:-0.7109 13:35.9973 14:3.2222 15:-1.825 16:3.7549 17:-0.3474 18:-1.2932 19:1.5657 20:-1.1819 21:0.8787 22:-0.5952 23:-0.3663 24:-0.1747 25:48.5879 26:1.062 27:-0.3686 28:2.9555 29:-0.3443 30:-1.3374 31:0.7315 32:-0.5577 33:0.9986 34:-0.2236 35:0.4493 36:0.0209 37:0.9518 38:3.7903 39:2.1241 
1 1:-55.4992 2:10.212 3:-3.8557 4:3.3994 5:-4.1084 6:-2.8538 7:1.4417 8:-2.5446 9:1.4664 10:-1.5541 11:-0.1239 12:-0.653 13:15.724 14:7.384 15:-1.8998 16:-0.4884 17:-3.0292 18:-1.2721 19:-0.1312 20:-1.2907 21:0.3191 22:-1.099 23:-0.5989 24:-0.4342 25:37.4463 26:4.4432 27:-0.7862 28:-0.692 29:-1.1116 30:-0.1238 31:-0.5177 32:-0.8004 33:-0.2987 34:-1.0026 35:-0.2555 36:-0.2506 37:-1.2026 38:3.4094 39:1.5176 
1 1:-61.3773 2:14.3364 3:-3.2567 4:0.7612 5:-4.8297 6:-2.9873 7:0.5833 8:-3.0496 9:1.7777 10:-1.2701 11:-0.3438 12:-0.5307 13:17.6746 14:5.9133 15:-1.436 16:1.093 17:-2.3968 18:-1.7124 19:0.6512 20:-1.7524 21:1.561 22:-0.1024 23:0.1613 24:0.1325 25:44.0284 26:3.3738 27:-0.3534 28:0.1226 29:-1.2862 30:-0.8504 31:0.1706 32:-0.9563 33:1.4122 34:0.4959 35:-0.0583 36:0.663 37:-1.2562 38:3.5079 39:1.2369 
1 1:-53.244 2:15.2014 3:-0.9772 4:3.5075 5:-2.2583 6:-2.6814 7:0.4919 8:-3.2959 9:1.7528 10:-1.2845 11:-0.2929 12:-0.5342 13:23.0718 14:8.8577 15:-0.6019 16:1.5096 17:-0.8047 18:-1.4951 19:-0.1153 20:-1.5793 21:0.1797 22:-1.1964 23:-0.365 24:-0.8761 25:44.2287 26:3.2832 27:-1.3566 28:0.5626 29:-0.4449 30:-0.4888 31:0.1895 32:-0.6163 33:-0.3994 34:-1.331 35:-0.4486 36:-0.5 37:-0.3673 38:3.5421 39:1.6272 
1 1:-107.0363 2:12.9543 3:-3.9128 4:4.5225 5:-1.9083 6:-2.3902 7:0.7335 8:-2.8617 9:0.7483 10:-2.5204 11:-0.4951 12:-1.6737 13:3.3652 14:5.3103 15:-4.0341 16:2.9254 17:-1.8818 18:-1.7908 19:0.2149 20:-1.68 21:0.4693 22:-1.4459 23:-0.3673 24:-0.846 25:38.0701 26:1.3312 27:-4.2207 28:-0.0015 29:-3.0822 30:-2.579 31:-0.6449 32:-0.8954 33:0.3422 34:-0.8943 35:-0.1722 36:-0.6741 37:-4.1068 38:2.8083 39:0.623 
1 1:-89.7132 2:13.6394 3:-2.668 4:3.1271 5:-3.5258 6:-3.0296 7:0.7243 8:-2.2176 9:0.8848 10:-2.053 11:-0.9245 12:-1.9207 13:1.9197 14:7.4337 15:1.6368 16:1.2567 17:-0.6734 18:-0.944 19:0.749 20:-0.9787 21:0.7096 22:-0.4855 23:0.1925 24:-0.7662 25:43.2196 26:4.1136 27:0.6324 28:0.4534 29:-1.0091 30:-1.2942 31:0.1449 32:-0.8801 33:0.6951 34:-0.3766 35:0.3145 36:-0.3095 37:-2.9614 38:3.5905 39:0.4223 
1 1:-85.7861 2:21.3926 3:2.3653 4:3.3052 5:-3.0214 6:-1.7645 7:1.4949 8:-1.3799 9:1.3318 10:-1.5679 11:-1.2173 12:-1.487 13:12.2407 14:13.4623 15:1.7994 16:2.1701 17:-1.3194 18:-0.0878 19:1.1812 20:-0.0527 21:0.5006 22:-0.7002 23:-1.2291 24:-0.6095 25:41.3746 26:7.1145 27:0.9001 28:1.314 29:-0.2866 30:0.4476 31:1.1067 32:-0.0539 33:0.25 34:-0.0054 35:-0.3263 36:0.0464 37:-1.6777 38:4.0103 39:2.1851 
1 1:-53.4462 2:16.8973 3:-0.1426 4:3.2721 5:-2.7155 6:-1.7941 7:1.6851 8:-0.6331 9:2.5304 10:0.3032 11:0.4964 12:0.5201 13:19.3666 14:4.015 15:-2.2309 16:0.7034 17:-2.1329 18:-2.0637 19:0.2055 20:-0.748 21:1.3043 22:0.5295 23:0.9733 24:0.7562 25:44.6152 26:-0.5796 27:-2.6328 28:-0.6069 29:-2.1761 30:-2.1286 31:-0.4451 32:-1.0319 33:-0.036 34:0.2144 35:0.701 36:0.6829 37:0.2887 38:3.411 39:1.4153 
1 1:-74.7159 2:11.1593 3:-5.0043 4:-0.9549 5:-4.2856 6:-3.1066 7:0.3473 8:-2.6119 9:0.1145 10:-0.7252 11:0.6776 12:1.0856 13:9.9012 14:7.1979 15:-3.1255 16:-1.9046 17:-2.3271 18:-1.4267 19:0.0187 20:-2.074 21:-0.9675 22:-1.3345 23:-0.3253 24:0.1806 25:34.3518 26:3.4164 27:-2.5366 28:-2.6496 29:-2.8879 30:-2.1929 31:-0.8191 32:-2.1562 33:-1.3037 34:-1.2861 35:-0.4399 36:-0.0311 37:-1.849 38:3.1048 39:0.833 
1 1:-79.3114 2:10.4349 3:-10.6416 4:-4.823 5:-6.5351 6:-4.8756 7:-1.2826 8:-4.7338 9:-2.366 10:-3.3845 11:-0.2528 12:-0.0269 13:15.2466 14:4.5322 15:-6.8199 16:-2.0576 17:-2.7991 18:-2.2966 19:-0.554 20:-1.7088 21:-0.8984 22:-1.4247 23:0.4274 24:-0.1454 25:44.2766 26:2.2857 27:-5.078 28:-0.8976 29:-0.3519 30:-0.3387 31:0.4712 32:-0.173 33:0.209 34:0.0596 35:1.0702 36:-0.1177 37:-2.2031 38:3.5841 39:1.8325 
1 1:-63.9057 2:8.4243 3:-10.7893 4:-4.49 5:-8.0522 6:-6.3928 7:-2.6124 8:-4.404 9:-1.567 10:-2.3488 11:-0.434 12:0.0392 13:14.5929 14:4.8389 15:-2.9138 16:-2.0803 17:-4.9238 18:-3.4307 19:-1.8433 20:-2.4251 21:-0.4734 22:-0.8684 23:-0.6109 24:0.0518 25:44.9968 26:6.3449 27:0.5071 28:-0.9002 29:-1.6937 30:-0.1581 31:-0.1227 32:-0.1852 33:0.093 34:0.3239 35:-0.2454 36:-0.6558 37:-1.1196 38:3.9658 39:2.2643 
1 1:-39.6987 2:12.0695 3:-3.7087 4:-0.247 5:-5.3776 6:-4.3577 7:-1.1211 8:-2.0682 9:0.1925 10:-0.0521 11:-0.2429 12:0.7097 13:25.5022 14:5.511 15:-1.5555 16:1.1928 17:-0.8345 18:-0.9901 19:0.675 20:-0.0257 21:0.9147 22:0.6228 23:0.5346 24:1.1209 25:45.4521 26:3.9813 27:0.6962 28:1.5076 29:1.3205 30:0.9867 31:1.8437 32:1.1253 33:1.3289 34:0.8119 35:0.9881 36:1.3178 37:0.5377 38:3.7586 39:2.1286 
1 1:-114.5416 2:12.1269 3:-3.4264 4:-0.2747 5:-4.4178 6:-3.1284 7:-0.5265 8:-2.4432 9:-0.5354 10:0.1643 11:0.3076 12:1.2821 13:-9.7615 14:6.9496 15:-2.1125 16:-1.3004 17:-3.6929 18:-2.4736 19:-1.1923 20:-2.5731 21:-1.9444 22:-0.6927 23:-0.4396 24:-0.0263 25:32.3399 26:4.7217 27:-0.9518 28:-1.3002 29:-1.6162 30:-0.4257 31:0.298 32:-1.8924 33:-1.8717 34:-0.6195 35:0.0061 36:0.0567 37:-4.6856 38:3.0009 39:2.2673 
1 1:-129.1968 2:10.8631 3:-5.4446 4:0.3134 5:-4.6053 6:-2.3363 7:-0.1472 8:-2.793 9:-1.4479 10:-0.3037 11:-0.8528 12:1.385 13:-4.3408 14:3.7428 15:-2.9278 16:1.5904 17:-1.4253 18:-0.874 19:0.229 20:-0.4895 21:0.6957 22:0.0794 23:-0.686 24:1.2695 25:42.4665 26:1.4446 27:-0.6807 28:1.7091 29:0.0376 30:-0.4621 31:1.1201 32:0.1407 33:1.4284 34:-0.1343 35:0.2717 36:1.1086 37:-5.8202 38:3.5313 39:0.2203 
1 1:-38.4008 2:4.0771 3:-7.0896 4:1.6792 5:-6.3016 6:-3.5914 7:-0.6105 8:-3.6223 9:0.0245 10:-1.0483 11:-0.9008 12:1.4212 13:37.828 14:-0.0901 15:-3.8889 16:0.0623 17:-4.8035 18:-2.63 19:-0.9903 20:-2.9036 21:-0.5891 22:-0.8273 23:-0.5025 24:0.0827 25:50.9163 26:-2.0082 27:-1.7627 28:-0.7042 29:-3.3835 30:-2.4239 31:-1.6339 32:-2.2778 33:0.0905 34:-0.579 35:-0.2593 36:-0.2958 37:0.104 38:3.9881 39:2.2479 
1 1:-46.8999 2:1.8567 3:-8.7974 4:-1.678 5:-8.5355 6:-5.3951 7:-2.5795 8:-4.7555 9:-0.4651 10:-2.7568 11:-0.7448 12:0.1455 13:15.5872 14:0.9581 15:-6.2696 16:-2.5579 17:-4.4807 18:-3.1983 19:-1.5682 20:-1.9005 21:-0.2264 22:-1.4528 23:0.3346 24:-0.052 25:33.4198 26:-0.3411 27:-4.3622 28:-2.9536 29:-2.9126 30:-2.2096 31:-1.0345 32:-0.8662 33:-0.201 34:-0.2152 35:-0.0142 36:-0.1837 37:-0.2777 38:3.0819 39:1.1264 
1 1:-16.5909 2:2.6584 3:-9.1854 4:-4.0951 5:-8.2254 6:-5.935 7:-3.5073 8:-4.903 9:-1.6575 10:-3.0109 11:-0.8015 12:-0.4666 13:39.1762 14:1.9512 15:-3.3366 16:-1.4454 17:-3.4397 18:-2.5204 19:-1.8559 20:-3.025 21:-0.9117 22:-1.4673 23:-0.9925 24:-0.047 25:48.9644 26:-1.9612 27:-3.8579 28:-2.3698 29:-2.8265 30:-2.8045 31:-1.9425 32:-2.3525 33:-0.3419 34:-0.3584 35:0.0191 36:-0.0595 37:1.7329 38:3.7564 39:2.1832 
1 1:-48.0413 2:4.5456 3:-6.857 4:-1.6179 5:-7.0146 6:-6.8095 7:-2.8617 8:-4.7736 9:-2.0833 10:-2.5009 11:-0.6498 12:-0.5071 13:17.4194 14:6.4036 15:-0.822 16:1.8239 17:-1.7486 18:-2.2514 19:-0.3473 20:-1.074 21:-1.0752 22:-0.7685 23:-0.2737 24:-0.2508 25:37.8178 26:6.3913 27:1.3792 28:3.2128 29:1.1906 30:0.3569 31:0.5099 32:0.3808 33:-0.0285 34:0.2436 35:-0.416 36:0.1294 37:-0.5222 38:3.2624 39:1.3864 
1 1:-51.9152 2:7.3529 3:-5.4512 4:0.4802 5:-5.4231 6:-6.3324 7:-1.4478 8:-3.4223 9:-1.5454 10:-2.1134 11:-0.9293 12:-0.5273 13:19.3579 14:0.1636 15:-4.4428 16:-1.1378 17:-3.5895 18:-4.1531 19:-0.5518 20:-2.2182 21:-0.8354 22:-1.3863 23:-0.4834 24:-0.7247 25:42.0493 26:0.2266 27:-1.941 28:-1.0738 29:-1.3546 30:-0.7401 31:0.1731 32:-0.7353 33:0.3399 34:-0.1186 35:-0.171 36:-0.0009 37:-0.7402 38:3.292 39:1.1496 
1 1:-23.9479 2:4.3419 3:-7.7993 4:-2.2702 5:-7.3787 6:-7.0883 7:-3.0474 8:-4.6171 9:-1.4811 10:-2.0984 11:-0.9482 12:-0.2862 13:33.1475 14:3.2506 15:-3.4056 16:-1.2053 17:-3.7536 18:-3.4644 19:-2.4786 20:-2.9519 21:-0.7636 22:-0.9221 23:-0.3157 24:0.1762 25:48.5422 26:3.169 27:-0.1073 28:0.3597 29:-0.6286 30:-0.5946 31:-0.4609 32:-1.0345 33:-0.0035 34:0.3955 35:0.071 36:-0.2023 37:1.0894 38:3.8468 39:2.3264 
1 1:-45.3961 2:11.2811 3:-4.5423 4:0.3994 5:-4.8203 6:-4.0038 7:-1.5465 8:-3.6555 9:-0.7819 10:-0.9363 11:0.016 12:-0.5712 13:20.7047 14:7.5834 15:-1.4624 16:1.087 17:-1.9359 18:-0.8975 19:0.3638 20:-0.5526 21:0.006 22:-0.4313 23:0.0035 24:-0.3621 25:43.4652 26:6.5199 27:0.9854 28:2.2145 29:0.7433 30:1.2335 31:1.2431 32:0.2994 33:0.1585 34:0.1741 35:-0.1158 36:-0.5046 37:0.0418 38:3.8423 39:1.8694 
1 1:-69.3908 2:16.6239 3:-4.1764 4:1.6587 5:-3.9118 6:-0.4475 7:0.1231 8:-2.7014 9:-0.1687 10:1.1129 11:-0.1679 12:-0.1934 13:21.4833 14:7.9347 15:-3.8164 16:-0.674 17:-3.0637 18:-0.7033 19:-0.7691 20:-2.868 21:-0.593 22:0.9755 23:-0.6186 24:0.08 25:48.3235 26:3.9995 27:-2.2493 28:-1.3207 29:-3.0972 30:-0.5679 31:-0.2437 32:-2.1911 33:-1.0426 34:0.3517 35:-1.5066 36:0.1232 37:-1.4427 38:4.0666 39:1.7494 
1 1:-70.6602 2:14.5351 3:-5.6393 4:-0.3513 5:-6.2648 6:-2.5704 7:-0.0807 8:-3.3419 9:-0.5481 10:1.0959 11:-0.4974 12:1.087 13:12.5124 14:8.5907 15:-0.8441 16:1.1723 17:-2.3437 18:-1.8224 19:0.6986 20:-0.9014 21:0.2934 22:0.2483 23:0.38 24:0.7774 25:39.241 26:6.9205 27:2.1209 28:1.6859 29:-1.0099 30:-2.0109 31:0.3684 32:-1.307 33:0.0159 34:-0.4733 35:0.0708 36:0.6749 37:-1.5137 38:3.9925 39:2.7809 
1 1:-64.8695 2:13.3526 3:-3.8759 4:0.2896 5:-5.8038 6:-4.9872 7:-1.3777 8:-4.7365 9:-1.3419 10:-0.9485 11:-0.8655 12:0.3747 13:15.0793 14:4.472 15:-3.0782 16:-0.5889 17:-3.2831 18:-3.1849 19:-2.5742 20:-3.4184 21:-1.9019 22:-1.4144 23:-1.2826 24:-0.4893 25:43.349 26:2.8035 27:-0.8391 28:0.1967 29:-1.1912 30:-2.3565 31:-2.3841 32:-2.5816 33:-1.2671 34:-1.5472 35:-1.4126 36:-1.0775 37:-0.8655 38:3.883 39:1.2969 
1 1:-22.3608 2:8.252 3:-7.1107 4:-2.3595 5:-7.1217 6:-6.1265 7:-3.6666 8:-5.894 9:-1.9501 10:-2.4407 11:-1.3866 12:-0.6003 13:30.652 14:3.3249 15:-4.2242 16:-2.2816 17:-4.3729 18:-2.6485 19:-1.0433 20:-2.4639 21:-0.1119 22:-0.6969 23:0.0843 24:-0.0162 25:44.3801 26:1.7559 27:-1.8802 28:-1.5676 29:-1.9926 30:-1.8977 31:-1.2295 32:-1.6076 33:-0.0879 34:-0.482 35:0.0252 36:-0.2063 37:1.5724 38:3.6975 39:1.9409 
1 1:-20.817 2:6.0373 3:-7.376 4:-1.6988 5:-6.989 6:-5.9859 7:-2.3209 8:-5.2316 9:-0.749 10:-2.1828 11:-0.3547 12:0.4462 13:29.6279 14:2.9537 15:-2.9495 16:0.9455 17:-2.5496 18:-2.6583 19:-0.3201 20:-2.4146 21:-0.0797 22:-1.4662 23:0.0681 24:0.439 25:42.3028 26:1.7299 27:-0.2286 28:1.7808 29:-1.1704 30:-1.3066 31:0.5425 32:-1.7187 33:0.3832 34:-0.9159 35:0.5122 36:-0.014 37:1.2312 38:3.4601 39:1.5019 
1 1:-23.3879 2:4.0658 3:-5.0134 4:0.8181 5:-6.8667 6:-5.7448 7:-0.5213 8:-5.7534 9:0.3274 10:-2.4767 11:0.0247 12:0.0836 13:30.0142 14:0.2357 15:-3.2782 16:-0.1657 17:-4.3312 18:-3.4805 19:-0.4972 20:-3.1588 21:0.0277 22:-1.3205 23:-0.2769 24:-0.4337 25:42.3456 26:-2.6733 27:-2.7979 28:-0.6223 29:-3.1446 30:-2.4066 31:-0.5172 32:-1.8164 33:-0.1548 34:-1.3924 35:-0.0721 36:-1.066 37:1.0092 38:3.4182 39:1.6406 
1 1:-11.6316 2:-1.4527 3:-8.1818 4:-1.0749 5:-7.9212 6:-6.9846 7:-0.9174 8:-5.8394 9:0.6458 10:-2.0774 11:0.2341 12:0.0125 13:33.3467 14:-0.8644 15:-4.5151 16:-0.9224 17:-3.5129 18:-3.5833 19:-0.6764 20:-2.562 21:0.3795 22:-0.5557 23:0.3278 24:0.4438 25:42.1337 26:-2.7904 27:-4.5921 28:-1.2173 29:-2.6426 30:-3.0617 31:-1.5565 32:-1.7461 33:-0.496 34:-0.4246 35:-0.1238 36:-0.0642 37:1.5926 38:3.3877 39:1.8212 
1 1:-8.651 2:-0.0039 3:-8.3268 4:1.1344 5:-4.4042 6:-5.4605 7:0.3851 8:-4.36 9:0.8763 10:-1.5034 11:-0.3515 12:0.1887 13:35.7534 14:0.1215 15:-4.014 16:1.3326 17:-1.2097 18:-2.1559 19:1.0296 20:-1.8559 21:0.5343 22:-0.7215 23:-0.2865 24:0.2474 25:44.3435 26:-0.363 27:-2.2512 28:0.8723 29:-0.4129 30:-1.3751 31:0.7299 32:-1.0899 33:-0.5663 34:-1.0805 35:-0.2738 36:-0.1435 37:1.6782 38:3.5464 39:1.9681 
1 1:-6.1654 2:4.0699 3:-5.0993 4:4.0771 5:-0.6741 6:-3.4968 7:1.5497 8:-3.0503 9:0.9523 10:-1.8549 11:-1.6827 12:-0.2519 13:36.2695 14:3.7066 15:-1.2693 16:2.5265 17:0.4272 18:-1.2092 19:0.7204 20:-1.3334 21:0.4193 22:-1.2377 23:-1.2762 24:-0.5029 25:44.6509 26:1.3892 27:-0.7124 28:1.1297 29:0.2413 30:-0.8663 31:0.3641 32:-0.436 33:-0.0698 34:-0.5962 35:-0.151 36:0.1311 37:1.7542 38:3.4631 39:1.781 
1 1:0.9888 2:5.7152 3:-3.688 4:4.0667 5:-0.6052 6:-3.832 7:0.9542 8:-2.8301 9:0.242 10:-2.1492 11:-1.3973 12:-0.3714 13:39.5621 14:2.7853 15:-2.0121 16:1.825 17:-1.1215 18:-2.0444 19:0.4047 20:-1.3919 21:-0.091 22:-1.0258 23:-0.4958 24:-0.3031 25:45.4654 26:1.3836 27:-0.7092 28:0.686 29:-1.1275 30:-1.0808 31:0.1128 32:-0.9547 33:-0.5457 34:-0.9886 35:0.0726 36:-0.3519 37:2.1171 38:3.4882 39:1.9577 
1 1:-7.1952 2:5.1103 3:-2.6197 4:4.2608 5:-1.6139 6:-3.5185 7:1.3668 8:-2.6391 9:0.3157 10:-2.3607 11:-0.4003 12:-0.3086 13:34.0169 14:1.975 15:-0.6816 16:2.593 17:-0.9419 18:-1.6735 19:0.9037 20:-0.8925 21:0.8266 22:-0.9335 23:0.0112 24:0.2932 25:45.0891 26:0.1577 27:-0.184 28:2.1257 29:-1.0556 30:-0.7374 31:0.6532 32:0.4206 33:1.0891 34:-0.3818 35:0.0847 36:0.3595 37:1.5567 38:3.5573 39:2.1415 
1 1:-5.6511 2:4.4643 3:-1.8167 4:3.8754 5:-2.9841 6:-2.9825 7:2.0752 8:-1.9007 9:0.7858 10:-1.552 11:0.1524 12:0.3774 13:34.8346 14:3.1957 15:-0.937 16:1.4261 17:-1.6039 18:-1.5875 19:0.6662 20:-1.4064 21:0.0196 22:-0.6937 23:0.0779 24:0.1705 25:44.2914 26:2.5678 27:0.2656 28:1.0988 29:-1.2286 30:-0.9412 31:0.1949 32:-0.5583 33:0.0326 34:0.0184 35:0.1825 36:0.1343 37:1.7152 38:3.5829 39:1.975 
1 1:-92.1938 2:9.0691 3:0.4954 4:4.2475 5:-2.3183 6:-3.2343 7:-0.2119 8:-3.8213 9:-1.7664 10:-3.4102 11:-1.3566 12:-0.4733 13:-2.2583 14:6.0983 15:1.7199 16:2.6805 17:-0.307 18:-2.0054 19:-1.6971 20:-3.4462 21:-2.7309 22:-3.4269 23:-2.1334 24:-0.9556 25:30.1616 26:5.1309 27:2.2724 28:1.8673 29:0.3063 30:-1.5984 31:-2.8511 32:-3.4387 33:-2.8515 34:-3.2116 35:-2.4973 36:-0.9945 37:-2.4853 38:4.5208 39:2.7179 
1 1:-114.9869 2:12.7898 3:-1.4527 4:7.7997 5:1.8126 6:-4.1407 7:-1.0628 8:-6.9788 9:-1.8198 10:-2.5982 11:-0.561 12:-0.8579 13:9.0396 14:5.349 15:-3.8125 16:5.2151 17:1.203 18:-1.6151 19:1.4592 20:-2.6525 21:0.7411 22:0.8384 23:1.3803 24:0.0486 25:58.6679 26:2.0647 27:-3.5254 28:3.5878 29:0.8815 30:-0.9985 31:1.3805 32:-1.6813 33:0.0859 34:0.9596 35:0.3975 36:0.2142 37:-3.5778 38:4.4701 39:0.4196 
1 1:-64.3988 2:8.5952 3:-9.4168 4:10.2268 5:3.1999 6:-3.6598 7:1.9047 8:-7.3637 9:0.5845 10:0.5477 11:1.9627 12:-0.6276 13:25.1675 14:3.2712 15:-5.3226 16:4.7901 17:1.8249 18:-1.7339 19:0.9429 20:-3.8399 21:0.7198 22:0.099 23:1.2399 24:-0.4855 25:55.363 26:-0.0929 27:-4.1713 28:2.6119 29:0.5299 30:-0.0801 31:1.0289 32:-1.5665 33:0.1607 34:-0.2618 35:0.1713 36:-0.3967 37:-1.3458 38:4.2796 39:1.853 
1 1:-44.2841 2:5.4585 3:-11.8334 4:10.6064 5:1.7332 6:-1.6775 7:2.022 8:-7.5224 9:0.1589 10:0.4593 11:2.1825 12:-0.9182 13:30.5275 14:2.2583 15:-6.0651 16:5.1591 17:0.4502 18:-0.559 19:0.5506 20:-4.0907 21:-0.0118 22:0.1872 23:1.28 24:-0.6388 25:51.9867 26:0.7228 27:-3.158 28:2.2768 29:-0.0387 30:-0.4283 31:-0.4 32:-2.4221 33:-0.0263 34:-0.1959 35:0.9341 36:-0.8541 37:-0.1155 38:4.1516 39:2.0172 
1 1:-42.7071 2:8.0696 3:-11.2272 4:9.7502 5:0.0636 6:-1.4673 7:2.0069 8:-8.6044 9:0.712 10:-0.7185 11:2.8434 12:-1.3357 13:31.4124 14:5.2436 15:-5.2758 16:4.6058 17:-0.4486 18:-0.8728 19:1.2814 20:-4.6692 21:0.307 22:-0.7979 23:1.453 24:-0.5436 25:51.5355 26:2.5114 27:-3.1238 28:1.5872 29:-1.174 30:-0.6622 31:0.3487 32:-2.7006 33:0.5932 34:-0.9031 35:1.291 36:-0.9144 37:-0.0818 38:4.0799 39:2.1218 
1 1:-44.9174 2:7.9796 3:-10.6616 4:7.8576 5:-2.4601 6:-1.949 7:2.7004 8:-8.1313 9:2.9205 10:-1.367 11:3.5433 12:-1.7618 13:30.816 14:3.5228 15:-4.4735 16:3.5742 17:-1.8659 18:-1.044 19:1.5393 20:-3.5331 21:1.8432 22:-0.3492 23:1.5875 24:-0.947 25:52.0215 26:1.1885 27:-0.8091 28:1.4571 29:-1.6715 30:-1.3454 31:0.2977 32:-1.8628 33:0.8791 34:-0.0014 35:0.3313 36:-0.4786 37:-0.4364 38:4.031 39:2.131 
1 1:-43.0703 2:6.3681 3:-7.0435 4:7.0314 5:-4.2543 6:-2.2323 7:3.0456 8:-8.189 9:3.158 10:-1.8607 11:2.798 12:-0.3533 13:30.6022 14:3.8225 15:-3.028 16:3.5355 17:-1.7661 18:-0.9757 19:2.2606 20:-3.9664 21:1.8148 22:-1.3976 23:1.3163 24:0.1019 25:52.6622 26:2.7362 27:-0.2657 28:1.7206 29:-0.9036 30:-1.0145 31:1.6964 32:-1.9435 33:0.8537 34:-0.8263 35:0.0312 36:0.0426 37:-0.349 38:4.2231 39:2.0116 
1 1:-31.5733 2:5.4164 3:-4.3001 4:7.574 5:-4.9395 6:-3.0699 7:3.221 8:-8.3371 9:2.8674 10:-2.2302 11:1.9281 12:-0.2134 13:34.2967 14:1.3394 15:-2.134 16:4.1296 17:-2.6248 18:-1.9829 19:0.7937 20:-4.4988 21:1.0971 22:-0.9199 23:1.1586 24:-0.1466 25:53.039 26:0.5388 27:-0.4443 28:2.415 29:-0.5563 30:-1.1772 31:0.3541 32:-1.5947 33:0.6892 34:-0.1675 35:0.6228 36:-0.5739 37:0.3847 38:4.001 39:1.9011 
0.33304623892993745 1:-28.568 2:2.7371 3:-3.8783 4:8.1404 5:-5.9432 6:-3.3994 7:1.9029 8:-8.1214 9:2.7908 10:-2.6273 11:2.2702 12:-2.0224 13:34.3143 14:1.1746 15:-1.7722 16:4.3953 17:-3.4185 18:-1.2201 19:0.8714 20:-3.7849 21:1.57 22:-1.9743 23:0.9749 24:-1.9169 25:51.463 26:0.3647 27:-1.0488 28:2.6171 29:-1.4096 30:-0.1621 31:0.0086 32:-1.8122 33:0.3887 34:-1.3602 35:0.7403 36:-2.0129 37:0.5669 38:3.9702 39:1.9888 
0.87591830010064631 1:-32.2177 2:0.6465 3:-4.5683 4:7.2561 5:-6.8017 6:-3.1496 7:1.5364 8:-8.1376 9:2.8537 10:-3.4929 11:3.0736 12:-2.6628 13:33.0773 14:0.3412 15:-2.3942 16:2.7557 17:-3.5415 18:-1.3522 19:1.0464 20:-4.2355 21:1.0963 22:-1.4633 23:1.7134 24:-0.44 25:52.8147 26:0.1907 27:-0.819 28:1.0094 29:-1.7142 30:-0.0177 31:0.6312 32:-1.2164 33:0.0993 34:-0.4701 35:0.5125 36:-0.1742 37:0.4489 38:4.0427 39:2.2312 
1 1:-31.0828 2:-0.2981 3:-4.42 4:6.8748 5:-6.1795 6:-3.6401 7:0.7283 8:-8.1762 9:2.9091 10:-2.6798 11:2.5208 12:-2.0454 13:30.9614 14:-0.7095 15:-2.1994 16:3.8749 17:-2.8528 18:-2.8736 19:-0.2567 20:-4.1684 21:1.9592 22:-0.9033 23:1.0885 24:-1.1816 25:49.3736 26:0.1292 27:-0.6824 28:1.856 29:-0.9865 30:-1.1785 31:-0.213 32:-2.1872 33:0.554 34:-0.1462 35:0.3912 36:0.7453 37:0.3971 38:3.8934 39:1.922 
1 1:-22.9358 2:0.5384 3:-4.3968 4:6.993 5:-6.3592 6:-3.7349 7:0.4889 8:-8.5744 9:2.8849 10:-2.7991 11:2.2872 12:-2.5458 13:37.5099 14:0.8223 15:-2.3277 16:3.6354 17:-3.4658 18:-1.1969 19:0.8551 20:-4.4145 21:1.1567 22:-1.6837 23:1.472 24:-1.7427 25:51.0582 26:0.2877 27:-1.3162 28:2.3411 29:-1.9713 30:-0.4611 31:1.128 32:-1.9641 33:0.8 34:-0.5195 35:1.6893 36:-0.945 37:0.8087 38:3.9905 39:2.2127 
0.25359292043297849 1:-26.8102 2:1.1597 3:-5.4567 4:6.4056 5:-6.704 6:-3.2424 7:1.2405 8:-8.646 9:3.3847 10:-3.3035 11:2.7394 12:-3.36 13:33.2783 14:0.808 15:-2.8809 16:2.9853 17:-3.3928 18:-1.5921 19:0.2977 20:-4.0798 21:1.9703 22:-1.6722 23:1.191 24:-1.7883 25:49.2939 26:0.8861 27:-1.158 28:2.5836 29:-1.5061 30:-0.5382 31:0.7896 32:-1.9944 33:1.2844 34:-0.8236 35:1.0842 36:-0.9205 37:0.5271 38:3.8729 39:1.9353 
0.15228216274595957 1:-28.7305 2:1.4951 3:-4.3574 4:6.9218 5:-6.6497 6:-3.4939 7:1.6769 8:-7.7262 9:2.868 10:-2.0279 11:3.357 12:-2.4168 13:32.7402 14:0.8063 15:-1.4784 16:3.6091 17:-3.073 18:-2.1442 19:1.3084 20:-3.7301 21:1.4175 22:-0.826 23:1.9351 24:-1.0176 25:49.4916 26:1.629 27:0.5352 28:2.6972 29:-1.7104 30:-1.3223 31:1.4248 32:-1.7246 33:0.524 34:-0.3441 35:1.7723 36:-0.4962 37:0.4037 38:3.8809 39:1.987 
1 1:-24.5472 2:2.3876 3:-4.2873 4:7.7291 5:-6.8463 6:-3.38 7:2.8697 8:-7.2665 9:3.4205 10:-1.493 11:5.2918 12:-2.0828 13:32.5777 14:1.2868 15:-3.243 16:3.9607 17:-3.3019 18:-1.0466 19:1.3447 20:-3.6673 21:1.8822 22:-0.5401 23:3.1251 24:-0.7237 25:46.49 26:1.9324 27:-1.8282 28:3.0024 29:-0.833 30:0.2817 31:1.5584 32:-1.6808 33:1.829 34:-0.5736 35:2.018 36:-0.6953 37:0.7022 38:3.8068 39:2.0095 
1 1:-19.126 2:2.7013 3:-4.9583 4:7.8064 5:-6.7795 6:-3.1226 7:2.2075 8:-8.7196 9:4.4066 10:-2.4507 11:4.4657 12:-2.5788 13:32.3242 14:1.3596 15:-1.8257 16:3.8863 17:-3.8952 18:-1.8693 19:0.7403 20:-4.8269 21:1.8771 22:-1.7879 23:1.4744 24:-1.149 25:43.6699 26:1.8685 27:-0.9342 28:2.4939 29:-2.0812 30:-0.5444 31:0.3183 32:-2.6456 33:0.73 34:-0.9723 35:0.2616 36:-0.0978 37:1.2387 38:3.7298 39:2.0721 
1 1:-13.8135 2:4.6883 3:-3.2961 4:7.9146 5:-7.1475 6:-3.4175 7:0.3937 8:-8.4667 9:2.644 10:-2.6752 11:2.4713 12:-2.7769 13:34.4177 14:2.9863 15:-1.3991 16:3.9647 17:-3.3716 18:-1.8684 19:-0.3898 20:-3.5339 21:0.9613 22:-1.1234 23:1.1756 24:-1.9038 25:43.68 26:2.6632 27:-0.821 28:2.7136 29:-1.6863 30:-1.0056 31:-0.6269 32:-1.3902 33:0.0066 34:-1.0435 35:0.5648 36:-1.2198 37:1.7066 38:3.5739 39:2.0656 
1 1:-6.4537 2:6.2891 3:-2.8147 4:7.5232 5:-6.4361 6:-2.5546 7:0.0976 8:-7.0867 9:0.89 10:-3.0061 11:2.2287 12:-2.3277 13:35.7529 14:2.8643 15:-1.4233 16:3.3533 17:-2.6629 18:-0.7427 19:0.5527 20:-3.053 21:0.4543 22:-1.403 23:1.286 24:-0.4542 25:43.6689 26:1.5683 27:-0.6388 28:2.0106 29:-0.5149 30:0.0113 31:0.1976 32:-0.8856 33:0.1733 34:-0.8096 35:0.9027 36:-0.153 37:2.0674 38:3.3512 39:1.9355 
1 1:7.6155 2:6.6254 3:-2.1679 4:7.158 5:-4.7884 6:-1.1445 7:0.4498 8:-6.0285 9:1.543 10:-2.7659 11:2.1045 12:-0.9199 13:39.5564 14:4.0797 15:-0.4459 16:3.641 17:-2.0894 18:-0.3134 19:-0.0189 20:-3.2889 21:0.9098 22:-1.2728 23:0.7317 24:-0.5182 25:43.8966 26:2.4703 27:0.1732 28:1.759 29:-0.3024 30:-0.2262 31:0.1066 32:-0.9883 33:0.9288 34:-0.1219 35:0.5871 36:0.1599 37:2.8444 38:3.4645 39:2.1496 
1 1:7.532 2:6.8039 3:-0.3646 4:6.7883 5:-3.6987 6:-1.0384 7:0.2333 8:-5.154 9:1.4482 10:-1.729 11:1.2339 12:0.4914 13:36.7255 14:2.6222 15:-0.2715 16:3.1353 17:-1.8038 18:-0.8382 19:0.1614 20:-2.3317 21:0.5421 22:-0.5102 23:0.602 24:0.6073 25:40.6287 26:1.4919 27:0.4877 28:1.4095 29:-0.159 30:-0.7466 31:-0.0489 32:-1.1578 33:-0.0106 34:-0.3285 35:0.2484 36:0.2688 37:2.6976 38:3.2561 39:1.9558 
1 1:13.8209 2:6.4246 3:-0.5707 4:5.6738 5:-2.9584 6:-0.5892 7:0.3959 8:-4.2461 9:0.3112 10:-2.122 11:-0.0027 12:0.2717 13:40.315 14:3.4944 15:-0.737 16:2.1296 17:-1.6851 18:-0.0577 19:0.2136 20:-2.0458 21:-0.0794 22:-1.4725 23:-0.556 24:-0.309 25:42.9457 26:1.8503 27:-0.8448 28:0.6384 29:-0.5693 30:0.1894 31:0.3357 32:-0.8559 33:-0.0167 34:-0.288 35:-0.2507 36:-0.5108 37:3.1529 38:3.4576 39:2.1339 
1 1:18.094 2:6.3809 3:-0.962 4:5.4389 5:-2.0283 6:-0.479 7:0.2425 8:-3.1068 9:0.2561 10:-1.6897 11:-0.0978 12:-0.0134 13:39.9982 14:3.0352 15:-0.074 16:3.2045 17:-0.9183 18:-0.353 19:0.057 20:-1.2464 21:0.3042 22:-0.7808 23:0.1062 24:0.3439 25:41.2256 26:1.4966 27:-0.6288 28:0.651 29:-0.9816 30:-0.1437 31:-0.2499 32:-0.5713 33:0.4894 34:-0.1981 35:-0.0537 36:0.3062 37:3.5267 38:3.2104 39:2.0106 
1 1:15.7342 2:5.9507 3:-0.7018 4:5.2111 5:-1.6172 6:-1.1047 7:0.4073 8:-1.8146 9:0.741 10:-0.8993 11:-0.1539 12:-0.0037 13:38.8068 14:2.6668 15:-0.5209 16:2.4285 17:-0.217 18:-0.4253 19:0.716 20:-0.1928 21:0.4453 22:-0.1127 23:-0.085 24:-0.1135 25:40.5387 26:0.9873 27:-0.6231 28:0.8873 29:0.123 30:0.3575 31:0.9611 32:0.5747 33:0.3253 34:-0.4473 35:-0.5526 36:-0.2383 37:3.3019 38:3.1546 39:1.9584 
1 1:18.3716 2:5.6615 3:-0.9504 4:3.7601 5:-1.1788 6:-0.2806 7:0.9624 8:-1.0713 9:0.0948 10:-1.3557 11:-0.5417 12:-0.3125 13:40.7735 14:3.1676 15:-0.417 16:1.7348 17:-0.8422 18:0.0024 19:0.4092 20:-0.9424 21:-0.3491 22:-1.0011 23:-0.1991 24:-0.3556 25:42.2247 26:1.5997 27:-0.1263 28:0.7488 29:0.0768 30:0.484 31:0.2674 32:-0.1891 33:-0.0847 34:-0.5357 35:0.1157 36:-0.0061 37:3.4557 38:3.5365 39:2.6749 
1 1:15.0122 2:5.0594 3:-1.0351 4:3.3343 5:-1.0506 6:-0.3792 7:0.5441 8:-0.8333 9:-0.1408 10:-0.9962 11:-0.759 12:-0.2744 13:37.6447 14:2.4672 15:-0.6084 16:1.5849 17:-0.6075 18:-0.6243 19:0.1485 20:-0.3099 21:0.2395 22:-0.5574 23:-0.7429 24:0.0684 25:41.2576 26:1.8647 27:-0.0538 28:1.2082 29:-0.407 30:-0.3069 31:0.7731 32:0.1926 33:0.548 34:-0.5448 35:-0.67 36:0.1515 37:3.0461 38:3.2204 39:1.9695 
1 1:19.9929 2:4.955 3:-1.3092 4:3.9636 5:-1.3538 6:-0.7467 7:0.5252 8:-1.0582 9:0.2991 10:-0.4004 11:-0.1979 12:-0.0709 13:41.5426 14:2.8194 15:-0.3348 16:2.3319 17:-0.4573 18:0.1112 19:0.1913 20:-1.1938 21:-0.1517 22:0.1769 23:0.5319 24:-0.0701 25:44.0466 26:2.2456 27:-0.1746 28:1.063 29:0.0245 30:0.5747 31:0.3805 32:-1.1875 33:-0.1416 34:-0.2805 35:0.6239 36:-0.0704 37:3.2175 38:3.4431 39:2.1856 
1 1:14.7428 2:4.3989 3:-1.7161 4:4.5759 5:-0.9082 6:0.0832 7:0.4163 8:-1.512 9:0.0148 10:-0.2336 11:0.5786 12:0.3166 13:36.4446 14:1.0905 15:-1.2444 16:1.9993 17:-0.9538 18:-0.0946 19:-0.3155 20:-0.477 21:0.2427 22:-0.0827 23:0.0437 24:0.063 25:39.1612 26:0.2849 27:-0.4689 28:0.655 29:-0.4968 30:0.1779 31:-0.4829 32:-0.6062 33:-0.0029 34:0.2233 35:0.2785 36:-0.1596 37:2.972 38:3.0647 39:1.5764 
1 1:18.3966 2:2.6455 3:-1.1499 4:4.0125 5:-0.6291 6:1.1342 7:0.3978 8:-0.7131 9:0.5728 10:-0.4245 11:-0.1984 12:-0.0017 13:41.9547 14:1.2994 15:0.0673 16:1.707 17:0.1289 18:1.0504 19:0.5051 20:0.1469 21:0.3881 22:-0.2259 23:-0.2665 24:-0.0291 25:43.6739 26:0.1602 27:1.0044 28:0.5039 29:-0.5565 30:0.8247 31:-0.2878 32:0.2185 33:0.715 34:-0.0115 35:-0.1217 36:-0.092 37:3.1276 38:3.2297 39:2.127 
1 1:19.6984 2:0.7413 3:-0.6113 4:3.2484 5:-1.5764 6:1.4526 7:0.3398 8:-0.0624 9:1.0172 10:-0.439 11:0.2541 12:0.1706 13:39.7137 14:-0.2897 15:-1.1191 16:1.9549 17:-1.2131 18:0.8657 19:0.333 20:0.1467 21:0.2101 22:-0.1426 23:0.1799 24:0.3426 25:41.4899 26:-0.3498 27:-0.4058 28:0.8779 29:-0.5341 30:1.0241 31:0.3266 32:0.754 33:-0.2137 34:0.2575 35:0.3088 36:0.395 37:2.9975 38:3.1317 39:1.9046 
1 1:19.4262 2:0.5824 3:-0.6388 4:3.4534 5:-3.5881 6:0.6662 7:0.5759 8:-0.7221 9:0.731 10:-0.7194 11:1.0868 12:0.6751 13:42.1695 14:1.0769 15:0.1853 16:2.0098 17:-2.1063 18:-0.2187 19:-0.0036 20:-1.0075 21:0.1877 22:-0.8016 23:0.8162 24:0.3665 25:42.9828 26:1.1112 27:0.0049 28:1.2013 29:-1.185 30:0.4767 31:0.0857 32:-0.6022 33:-0.6402 34:-0.6646 35:-0.0754 36:0.0988 37:3.0679 38:3.3941 39:2.094 
1 1:10.5631 2:1.6133 3:0.1061 4:4.5356 5:-3.1351 6:0.0325 7:0.5061 8:-1.368 9:0.6988 10:-0.9953 11:0.2784 12:0.4438 13:36.2257 14:0.811 15:0.4008 16:2.6538 17:-0.7802 18:0.2067 19:0.4995 20:-0.3898 21:0.8193 22:0.1329 23:0.0045 24:0.3185 25:38.829 26:0.3425 27:0.1396 28:1.9219 29:0.253 30:0.0695 31:-0.4001 32:-0.4161 33:-0.0855 34:0.2491 35:-0.0809 36:0.2325 37:2.7425 38:3.1777 39:1.705 
1 1:16.427 2:1.91 3:-0.6384 4:4.3968 5:-1.2743 6:0.1563 7:0.3961 8:-0.528 9:1.0173 10:-0.2628 11:-0.1709 12:0.1731 13:39.9653 14:0.9235 15:-1.1399 16:1.1886 17:-0.9462 18:-0.3353 19:-0.1215 20:-0.2261 21:0.2758 22:-0.1786 23:-0.0804 24:-0.3375 25:42.0415 26:0.7022 27:-0.8568 28:0.407 29:-0.4891 30:-0.0728 31:-0.1608 32:0.0093 33:-0.1009 34:0.5257 35:0.209 36:-0.1048 37:3.109 38:3.1975 39:1.7501 
1 1:22.5117 2:3.911 3:-1.8584 4:4.2253 5:-0.9361 6:0.6399 7:0.6689 8:-0.7255 9:1.0608 10:-0.3078 11:0.2137 12:0.0988 13:41.8513 14:2.6729 15:-0.7885 16:2.845 17:-0.2943 18:0.4262 19:0.8342 20:-0.7403 21:0.6514 22:-0.5531 23:0.1307 24:0.1579 25:41.8538 26:1.9973 27:-0.4233 28:1.8167 29:-0.4651 30:-0.0405 31:0.3337 32:-0.8168 33:-0.1935 34:-0.3706 35:0.2466 36:-0.4666 37:3.458 38:3.3445 39:2.1124 
1 1:18.0685 2:5.6493 3:-2.169 4:4.1818 5:-1.4116 6:0.2224 7:1.2344 8:-1.0469 9:0.4606 10:-0.5141 11:0.4935 12:0.204 13:38.6946 14:2.5486 15:-1.4067 16:1.8059 17:-1.0667 18:0.0169 19:0.5326 20:-0.3783 21:0.2752 22:-0.0761 23:0.294 24:0.5349 25:39.941 26:0.9141 27:-0.9229 28:0.9465 29:-1.0867 30:0.1718 31:0.2459 32:-0.6705 33:0.1138 34:-0.2532 35:0.1956 36:0.375 37:3.255 38:3.1107 39:1.822 
1 1:21.2299 2:4.9289 3:-2.6036 4:3.2022 5:-1.7883 6:-0.1656 7:1.6266 8:-0.9017 9:-0.0771 10:-0.5519 11:-0.0497 12:0.6413 13:40.7114 14:2.4724 15:-0.9893 16:1.4311 17:-0.7061 18:-0.1993 19:0.6381 20:-0.3565 21:-0.3532 22:-0.2747 23:-0.5735 24:0.2513 25:41.3495 26:0.953 27:-0.7013 28:0.638 29:-0.6725 30:-0.2413 31:-0.1805 32:-0.73 33:-0.1583 34:-0.5275 35:-0.5545 36:0.4597 37:3.4156 38:3.1856 39:1.9436 
1 1:25.3065 2:4.4039 3:-2.0779 4:4.0661 5:-1.1313 6:-0.3235 7:0.6697 8:-1.6971 9:0.3143 10:-0.4723 11:0.2332 12:0.279 13:42.8669 14:2.1732 15:-0.936 16:2.4717 17:-0.286 18:-0.3007 19:0.2756 20:-1.1947 21:0.5213 22:-0.0534 23:0.8666 24:-0.1473 25:42.745 26:1.4442 27:-0.2959 28:1.3454 29:0.0947 30:-0.5364 31:-0.2403 32:-1.1459 33:0.2592 34:-0.0201 35:0.3064 36:-0.101 37:3.6377 38:3.2692 39:2.1047 
1 1:19.2628 2:4.4337 3:-1.6636 4:4.3425 5:-0.9402 6:-0.8261 7:0.6633 8:-1.779 9:-0.059 10:-0.8827 11:0.1211 12:-0.1031 13:38.5094 14:2.2332 15:-1.1135 16:1.9593 17:-0.6289 18:-0.4631 19:0.4732 20:-0.8509 21:-0.8156 22:-1.0829 23:-0.7522 24:0.017 25:40.1148 26:1.1714 27:-0.8477 28:1.1411 29:-0.4301 30:-0.6647 31:0.189 32:-0.8083 33:-1.2226 34:-0.723 35:-0.6021 36:0.2041 37:3.3023 38:3.2417 39:2.0012 
1 1:15.1831 2:5.6898 3:-1.1108 4:4.2928 5:-0.7363 6:-0.2358 7:1.2698 8:-1.3119 9:-0.5259 10:-1.4973 11:0.0317 12:-0.3758 13:38.5519 14:3.1667 15:-0.5986 16:2.0439 17:-0.1953 18:0.4484 19:0.5596 20:-0.6545 21:0.4312 22:-0.5553 23:0.6045 24:-0.4715 25:40.7607 26:1.6316 27:-1.0227 28:1.1571 29:0.0294 30:0.0897 31:-0.0163 32:-0.7878 33:0.1928 34:-0.3233 35:0.391 36:-0.1885 37:3.226 38:3.3605 39:2.0392 
1 1:12.8518 2:6.1479 3:-0.8333 4:4.4523 5:-0.7793 6:-0.3137 7:1.0342 8:-1.5865 9:0.1009 10:-0.8356 11:1.115 12:0.2589 13:37.9463 14:3.2436 15:0.2791 16:2.5986 17:-0.5731 18:-0.4614 19:0.3999 20:-0.9998 21:-0.066 22:-0.2988 23:0.8204 24:0.5221 25:41.2734 26:1.8901 27:0.0609 28:1.0692 29:-0.5795 30:-0.3896 31:-0.4148 32:-1.2799 33:-0.2789 34:0.027 35:0.4721 36:0.7322 37:3.0806 38:3.3202 39:2.3096 
1 1:6.6015 2:7.06 3:0.0838 4:5.1304 5:-0.8689 6:-0.2701 7:0.7134 8:-1.8332 9:0.5709 10:-0.7797 11:0.5845 12:1.1139 13:35.4578 14:3.8303 15:0.2138 16:2.5498 17:-0.2693 18:0.2227 19:0.4871 20:-0.376 21:0.2332 22:-0.73 23:-0.2186 24:0.6727 25:40.3128 26:2.6573 27:0.6994 28:1.7131 29:-0.236 30:0.5166 31:-0.1668 32:-0.0465 33:0.1477 34:-0.9078 35:-0.3048 36:0.4279 37:2.6947 38:3.1782 39:1.6299 
1 1:-42.9403 2:11.4755 3:-2.6944 4:5.3196 5:-1.7276 6:0.2314 7:0.8567 8:-1.5058 9:0.1044 10:-0.7089 11:-0.5241 12:-0.1546 13:24.3626 14:7.0922 15:-3.7753 16:2.3381 17:-1.3892 18:-0.2058 19:0.3776 20:-0.8857 21:-0.394 22:0.2906 23:-0.4053 24:-0.6387 25:41.5222 26:3.9119 27:-3.8856 28:0.492 29:-1.4043 30:-0.4602 31:-0.4071 32:-0.3701 33:-1.0013 34:0.1348 35:-0.1038 36:-0.2568 37:-0.206 38:3.5467 39:1.3497 
1 1:-19.9045 2:13.0486 3:-4.3567 4:4.6005 5:-1.5048 6:-0.0126 7:1.2719 8:-0.6609 9:0.414 10:-0.3896 11:-1.1784 12:-0.9922 13:24.4306 14:5.0706 15:-0.3072 16:2.3313 17:0.1431 18:0.0613 19:1.0653 20:-0.0832 21:1.034 22:-0.2511 23:-0.6663 24:-0.6591 25:35.456 26:0.6312 27:0.0664 28:0.7844 29:0.8275 30:-0.1831 31:0.746 32:0.2223 33:0.4993 34:-0.0384 35:-0.6677 36:-0.421 37:1.2969 38:2.7271 39:0.4776 
1 1:5.3892 2:10.2327 3:-1.4236 4:4.5672 5:-1.071 6:-0.1351 7:1.0637 8:-0.5779 9:0.777 10:-0.7399 11:-0.9202 12:-1.2382 13:39.7203 14:5.5638 15:-0.1339 16:2.173 17:-0.9861 18:0.0968 19:0.3583 20:-0.6691 21:0.1643 22:-0.4577 23:0.0458 24:-0.6492 25:42.4356 26:1.738 27:-0.1559 28:0.9573 29:-0.4004 30:-0.1411 31:0.4761 32:-0.424 33:0.1633 34:-0.0491 35:0.2118 36:-0.6503 37:2.684 38:3.2872 39:2.1401 
1 1:7.8132 2:8.411 3:-1.2088 4:5.1221 5:-1.6004 6:-0.0632 7:0.957 8:-0.8831 9:0.0491 10:-0.4875 11:-0.4063 12:-1.1844 13:35.3461 14:3.7199 15:-1.6813 16:2.7481 17:-1.1097 18:-0.2312 19:0.2348 20:-0.605 21:-0.4178 22:-0.4195 23:-0.2506 24:-0.2462 25:40.2258 26:2.2941 27:-1.2292 28:1.2757 29:-0.8269 30:-0.1146 31:-0.2765 32:-1.0838 33:-0.7828 34:-0.4208 35:0.0361 36:-0.222 37:2.9387 38:3.1747 39:1.853 
1 1:2.9162 2:7.9538 3:-0.7954 4:5.8595 5:-1.4276 6:-0.0586 7:1.2797 8:-1.341 9:-0.0663 10:-1.1915 11:-0.4594 12:-0.2629 13:34.0925 14:3.7053 15:0.3861 16:3.2675 17:-0.6103 18:-0.1625 19:0.9351 20:-0.5716 21:0.3964 22:-0.866 23:-0.5524 24:0.0463 25:40.1472 26:1.6057 27:0.28 28:1.6237 29:-0.7889 30:-0.4384 31:0.3687 32:-1.0171 33:-0.2429 34:-1.2294 35:-0.3515 36:-0.1325 37:2.5674 38:3.2492 39:2.1386 
1 1:3.9635 2:8.4471 3:0.9863 4:6.8794 5:-1.1007 6:-1.4106 7:0.5616 8:-3.0324 9:-1.0234 10:-2.1703 11:-1.1001 12:-0.3482 13:36.0568 14:4.8166 15:0.8153 16:3.6238 17:-0.0496 18:-0.981 19:-0.136 20:-1.6855 21:-0.6555 22:-0.7209 23:-0.7458 24:-0.215 25:42.1607 26:2.835 27:0.5966 28:2.1653 29:0.0739 30:-0.7866 31:0.1035 32:-0.5597 33:-0.2373 34:-0.1247 35:-0.6585 36:-0.1602 37:2.9989 38:3.7038 39:2.3032 
1 1:5.6695 2:8.505 3:0.793 4:6.8787 5:-0.7173 6:-1.5971 7:0.2333 8:-2.9197 9:-0.4223 10:-1.9913 11:-1.1492 12:-0.9141 13:35.0103 14:3.6934 15:-0.2719 16:3.2999 17:-0.5413 18:-0.4282 19:0.4804 20:-0.8263 21:0.2057 22:-1.3883 23:-0.255 24:-0.6095 25:39.5073 26:1.1459 27:-1.0738 28:1.1005 29:-0.1981 30:0.1882 31:0.5429 32:0.0771 33:1.0189 34:-0.3338 35:0.0751 36:0.0499 37:3.1933 38:2.9557 39:1.8993 
1 1:16.8547 2:6.7044 3:-1.0534 4:4.7435 5:-0.4425 6:-0.555 7:0.4995 8:-1.8088 9:0.4868 10:-1.7001 11:-0.2574 12:-0.2659 13:41.0626 14:3.005 15:-0.6857 16:1.5203 17:-0.0673 18:-0.3878 19:0.2177 20:-1.289 21:-0.2705 22:-0.7099 23:0.0045 24:0.2279 25:42.8247 26:1.0778 27:-0.6508 28:0.3223 29:-0.0857 30:-0.067 31:0.4739 32:-0.4109 33:-0.5721 34:-0.6468 35:0.1542 36:0.4764 37:3.3822 38:3.2772 39:2.1347 
1 1:21.1674 2:5.0976 3:-1.5488 4:3.7016 5:-0.1026 6:-0.2135 7:0.3716 8:-1.9739 9:-0.1981 10:-1.4706 11:0.1798 12:0.4281 13:40.5133 14:2.3573 15:-0.5104 16:2.1477 17:-0.2586 18:0.241 19:0.1524 20:-0.8161 21:0.1169 22:-0.7405 23:0.3335 24:0.1345 25:41.7623 26:0.7945 27:-0.7026 28:0.8226 29:-0.4695 30:0.6054 31:0.4046 32:-0.4757 33:-0.4205 34:-0.4729 35:0.3137 36:0.4014 37:3.4008 38:3.1882 39:2.06 
1 1:16.0548 2:4.5409 3:-2.0342 4:4.2733 5:-0.3691 6:0.0314 7:0.9335 8:-1.6273 9:0.746 10:-1.1382 11:0.0513 12:0.0949 13:38.1239 14:2.1942 15:-1.2492 16:2.3759 17:0.1465 18:0.074 19:0.345 20:-0.7297 21:0.7908 22:-0.2376 23:-0.1598 24:-0.1019 25:39.5553 26:0.843 27:-0.9607 28:1.5158 29:0.1398 30:0.5104 31:0.0996 32:-0.1846 33:0.6463 34:-0.2002 35:0.1147 36:-0.1395 37:2.9976 38:3.1396 39:1.8376 
1 1:8.5925 2:5.2889 3:-1.8183 4:4.5152 5:-0.4415 6:-0.3531 7:0.6187 8:-1.5961 9:1.3418 10:-0.4677 11:0.202 12:-0.2693 13:35.2889 14:2.9875 15:-0.6504 16:2.0653 17:-0.6881 18:-0.3801 19:0.1885 20:-1.1582 21:0.2529 22:-0.5661 23:-0.1842 24:-0.416 25:39.0647 26:1.6323 27:-0.0636 28:1.1064 29:-0.1837 30:-0.1836 31:-0.321 32:-0.8631 33:0.1625 34:-0.5346 35:-0.3968 36:-0.342 37:2.6668 38:3.1359 39:1.9671 
1 1:14.4708 2:5.3129 3:-1.6096 4:4.3592 5:-0.8953 6:-0.0242 7:0.4438 8:-1.5404 9:0.7436 10:-0.5331 11:0.2161 12:-0.229 13:40.3988 14:2.7476 15:-0.9084 16:2.2978 17:-0.1876 18:0.168 19:0.3366 20:-0.3532 21:0.7003 22:0.2512 23:0.2191 24:-0.1753 25:42.5073 26:1.8495 27:-0.4004 28:0.8827 29:0.0055 30:0.4939 31:0.1313 32:-0.17 33:0.247 34:0.1429 35:-0.262 36:-0.6516 37:3.0994 38:3.4291 39:2.2906 
1 1:11.4999 2:5.0268 3:-0.8014 4:4.3121 5:-0.4872 6:0.6833 7:1.5628 8:-1.0655 9:0.3039 10:-0.6686 11:0.1775 12:0.1947 13:37.4111 14:2.2473 15:0.1694 16:2.0961 17:-0.2811 18:0.2438 19:0.8917 20:-0.6914 21:-0.4359 22:-0.696 23:0.5473 24:0.7108 25:41.7119 26:1.7562 27:0.9952 28:1.0855 29:0.3637 30:0.2342 31:0.4236 32:-0.4021 33:-0.1051 34:0.082 35:0.8856 36:0.7936 37:2.8802 38:3.392 39:2.132 
1 1:8.0875 2:5.331 3:0.5346 4:4.6765 5:-0.2636 6:0.7233 7:1.8023 8:-0.8703 9:0.7072 10:0.1714 11:0.3276 12:0.4965 13:35.8024 14:3.019 15:0.1495 16:2.4627 17:-0.1378 18:0.1435 19:1.0774 20:-0.0988 21:1.1173 22:0.3685 23:-0.282 24:-0.2519 25:40.4541 26:1.6071 27:0.1376 28:1.4482 29:-0.3704 30:-0.234 31:0.4563 32:-0.0036 33:0.9961 34:0.2851 35:0.2653 36:-0.1659 37:2.5836 38:3.0498 39:1.7163 
1 1:18.3359 2:5.4366 3:-0.3608 4:4.5738 5:-1.1297 6:0.3039 7:1.4669 8:-0.9982 9:0.7666 10:0.1534 11:0.3183 12:0.1919 13:41.1667 14:2.4382 15:-0.505 16:2.0381 17:-0.8315 18:0.4338 19:0.491 20:-0.8632 21:-0.2343 22:0.0802 23:0.2604 24:0.0345 25:41.7682 26:1.3749 27:-0.162 28:0.8379 29:-0.4826 30:-0.0606 31:0.3644 32:-0.5052 33:-0.0151 34:0.0745 35:0.3381 36:-0.4745 37:3.2199 38:3.3014 39:2.1219 
1 1:-4.4644 2:6.2917 3:-0.7217 4:3.9846 5:-0.6322 6:-0.2741 7:0.9456 8:-1.2186 9:0.4478 10:-0.625 11:0.4488 12:0.009 13:29.2525 14:3.9508 15:0.2753 16:2.4905 17:0.2318 18:-0.2501 19:0.325 20:-0.7126 21:0.6162 22:-0.4386 23:-0.0863 24:0.2956 25:36.4078 26:2.7575 27:1.1664 28:1.5515 29:0.2854 30:-0.0325 31:-0.2031 32:-0.4795 33:0.6848 34:-0.0723 35:-0.4347 36:-0.2434 37:1.9068 38:3.3924 39:2.5433 
1 1:2.2551 2:6.845 3:-0.856 4:3.9884 5:-0.9136 6:-0.3116 7:1.5947 8:-0.744 9:0.3773 10:-1.0013 11:-0.125 12:0.0667 13:36.2723 14:3.1714 15:-1.1031 16:1.5151 17:-1.2852 18:-0.4514 19:1.2933 20:-0.3925 21:-0.3314 22:-0.7249 23:-0.1716 24:-0.1674 25:43.8121 26:2.2252 27:0.0531 28:1.2301 29:-0.8216 30:-0.4909 31:0.8008 32:-0.6794 33:-0.121 34:-0.1945 35:-0.6264 36:-0.0147 37:2.3838 38:3.5219 39:1.9423 
1 1:18.5333 2:6.5794 3:-1.2312 4:3.6448 5:-1.0027 6:-0.2562 7:1.9406 8:-0.6506 9:0.1046 10:-0.707 11:-0.4774 12:0.0808 13:41.6108 14:3.229 15:-0.4078 16:1.8384 17:0.0323 18:0.1786 19:1.036 20:0.1701 21:0.4403 22:-0.2709 23:-0.3136 24:0.0605 25:43.3612 26:2.1587 27:-0.1158 28:0.8357 29:0.0321 30:-0.026 31:0.4857 32:-0.1983 33:-0.069 34:-0.3782 35:-0.4125 36:-0.29 37:3.2984 38:3.3582 39:2.0192 
1 1:18.4432 2:5.4761 3:-0.9814 4:3.7713 5:-0.3333 6:0.109 7:1.491 8:-0.7111 9:-0.0373 10:-0.8164 11:0.0065 12:-0.0613 13:39.0215 14:1.9147 15:-0.796 16:2.1066 17:-0.1906 18:0.0074 19:0.6383 20:-0.4074 21:-0.3362 22:-0.6188 23:0.731 24:0.0807 25:40.2653 26:0.5171 27:-0.3468 28:1.5673 29:-0.3785 30:-0.1127 31:0.4488 32:0.1154 33:-0.0506 34:-0.6689 35:0.2153 36:-0.3164 37:3.2056 38:3.1878 39:1.9394 
1 1:22.7044 2:4.7857 3:-1.4071 4:4.8853 5:-0.6496 6:0.2368 7:1.4179 8:-0.8385 9:-0.2705 10:-1.1738 11:0.1656 12:-0.6324 13:42.9847 14:2.7252 15:-0.9282 16:2.5168 17:-0.4167 18:0.0156 19:0.6249 20:-0.7247 21:-0.1602 22:-0.4313 23:-0.1371 24:-0.2521 25:42.6149 26:1.0313 27:-0.7947 28:1.0389 29:-0.4201 30:-0.3078 31:0.1887 32:-0.4619 33:-0.0804 34:-0.4702 35:0.1628 36:-0.1464 37:3.5276 38:3.3234 39:1.9706 
1 1:24.7639 2:4.2973 3:-2.1452 4:4.7609 5:-1.6513 6:-0.2846 7:0.9447 8:-0.8588 9:0.0046 10:-0.5025 11:0.0935 12:-0.7699 13:41.487 14:1.3254 15:-1.1654 16:2.4629 17:-1.0602 18:-0.0224 19:0.1118 20:-0.5552 21:0.1633 22:-0.1273 23:0.2267 24:-0.5464 25:40.2769 26:-0.1791 27:-0.7947 28:1.3228 29:-0.5037 30:-0.0652 31:-0.1264 32:-0.3846 33:0.0733 34:-0.0734 35:0.3256 36:0.07 37:3.629 38:3.0882 39:1.9482 
1 1:19.9841 2:4.6033 3:-1.5881 4:4.3693 5:-1.5115 6:0.2486 7:0.9811 8:-1.4139 9:-0.2025 10:-0.7749 11:-0.0421 12:-0.1252 13:40.6984 14:3.085 15:-0.2123 16:2.1551 17:-0.2332 18:0.6873 19:0.8313 20:-0.6985 21:-0.0797 22:-0.4127 23:-0.0885 24:0.3379 25:41.2453 26:1.292 27:0.2626 28:1.4953 29:0.4248 30:1.1161 31:0.1858 32:-1.1612 33:-0.3189 34:-0.5377 35:-0.0076 36:0.2208 37:3.3957 38:3.3647 39:2.1149 
1 1:21.0722 2:5.1547 3:-1.279 4:4.5071 5:-0.2393 6:0.3865 7:1.4365 8:-1.0206 9:0.1898 10:-0.5304 11:0.17 12:0.1166 13:41.4641 14:2.3071 15:-1.166 16:2.0809 17:-0.0776 18:-0.324 19:1.0495 20:-0.0386 21:0.2494 22:-0.0722 23:0.1884 24:-0.0124 25:41.9461 26:0.9253 27:-0.9231 28:1.2905 29:0.2528 30:0.1413 31:1.1205 32:0.019 33:0.232 34:0.3474 35:0.6441 36:0.2478 37:3.6079 38:3.3342 39:2.077 
1 1:24.5432 2:4.7409 3:-1.7246 4:3.5889 5:-0.8549 6:-1.066 7:1.3152 8:-0.6903 9:0.9237 10:-0.1019 11:0.0959 12:0.3062 13:42.2969 14:2.6457 15:-0.8493 16:1.1765 17:-1.1819 18:-1.1787 19:0.0183 20:-0.8151 21:0.2235 22:-0.5659 23:-0.4988 24:-0.3061 25:42.6577 26:1.3098 27:-0.8709 28:0.0823 29:-1.2006 30:-0.9302 31:-0.0674 32:-0.6403 33:0.1228 34:-0.731 35:-0.4662 36:-0.3996 37:3.711 38:3.3581 39:2.3005 
1 1:25.919 2:4.5712 3:-1.6275 4:2.9497 5:-1.2598 6:-1.1884 7:0.6915 8:-1.3386 9:0.3368 10:-0.7776 11:-0.524 12:0.1791 13:42.3687 14:2.2818 15:-0.485 16:1.3531 17:-0.4249 18:-0.0866 19:0.286 20:-0.5387 21:0.0453 22:0.0881 23:-0.1683 24:0.2582 25:41.9523 26:0.7842 27:-0.5405 28:0.2393 29:-0.3609 30:0.0934 31:-0.346 32:-0.8244 33:-0.4231 34:0.2982 35:-0.2031 36:-0.3243 37:3.7127 38:3.2565 39:2.0745 
1 1:25.7369 2:4.6228 3:-1.7233 4:3.1996 5:-1.3488 6:-0.452 7:1.1388 8:-0.8888 9:0.5056 10:-0.7148 11:0.4517 12:0.0846 13:42.1284 14:2.5913 15:-0.8043 16:1.9782 17:-0.7833 18:-0.0918 19:1.2037 20:-0.3901 21:0.6397 22:-0.3011 23:0.831 24:0.0468 25:41.9826 26:1.6457 27:-0.412 28:0.5609 29:-0.7575 30:0.3262 31:0.6986 32:-0.178 33:0.2233 34:0.4253 35:0.9135 36:0.0522 37:3.6237 38:3.2323 39:2.0657 
1 1:14.3986 2:5.5761 3:-0.7406 4:5.05 5:-0.7841 6:-0.1616 7:2.2238 8:-0.102 9:0.9267 10:-0.6504 11:0.9984 12:-0.182 13:37.637 14:2.6767 15:-0.481 16:3.0572 17:0.0161 18:-0.3181 19:1.02 20:0.4105 21:0.4919 22:-0.4061 23:-0.0252 24:-0.1278 25:40.2184 26:2.1375 27:0.2349 28:1.8734 29:-0.0772 30:-0.097 31:0.7318 32:0.6347 33:0.5151 34:-0.0986 35:0.1456 36:-0.1428 37:3.2418 38:3.3988 39:2.1591 
1 1:8.6532 2:6.7601 3:-0.3129 4:6.0805 5:-0.3441 6:-0.3509 7:2.1963 8:-0.2595 9:0.361 10:-0.8104 11:0.1345 12:-0.5332 13:36.1033 14:3.4733 15:-0.355 16:3.1139 17:-0.5582 18:-0.1087 19:0.7736 20:-0.7924 21:-0.3699 22:-0.5612 23:-0.2328 24:-0.4044 25:39.9263 26:1.0857 27:-1.2013 28:1.1223 29:-1.3089 30:-0.6888 31:-0.5077 32:-0.9068 33:-0.6538 34:-0.1609 35:-0.424 36:-0.5251 37:3.2468 38:3.0701 39:1.7382 
1 1:13.0136 2:7.0841 3:-1.4176 4:4.9949 5:-0.9464 6:-0.4628 7:1.9215 8:-1.2699 9:-0.2153 10:-0.9298 11:-0.0484 12:-1.007 13:40.2502 14:3.9889 15:-0.6415 16:2.0481 17:-0.2152 18:-0.4291 19:1.4296 20:-0.5133 21:0.1346 22:-0.7199 23:0.3764 24:-0.6673 25:43.1359 26:1.4363 27:-1.0543 28:0.6191 29:-0.3593 30:-0.2315 31:0.5183 32:-0.5697 33:-0.099 34:-0.4042 35:-0.2741 36:-0.6691 37:3.2366 38:3.1206 39:2.0094 
1 1:-0.5982 2:7.7869 3:-0.1899 4:5.3493 5:-0.3523 6:0.526 7:1.7522 8:-0.6352 9:0.126 10:-0.5682 11:0.789 12:-0.4562 13:29.8204 14:3.4975 15:0.6257 16:3.5053 17:0.2706 18:0.8845 19:0.6004 20:0.3704 21:0.328 22:0.0718 23:0.6467 24:0.4005 25:37.0916 26:1.682 27:0.5664 28:2.1562 29:0.2516 30:0.107 31:0.4447 32:0.8349 33:0.5037 34:-0.2232 35:0.3641 36:0.4741 37:2.5705 38:3.3454 39:1.7468 
1 1:-10.0961 2:7.5034 3:1.2919 4:4.875 5:-0.4795 6:0.7819 7:1.7118 8:0.0562 9:0.7775 10:0.2181 11:0.8919 12:0.5616 13:30.7992 14:3.9385 15:0.3023 16:1.3823 17:-0.4637 18:0.3627 19:0.9337 20:-0.5415 21:0.4889 22:0.3454 23:0.2577 24:0.0787 25:38.7203 26:1.144 27:-0.4524 28:0.1464 29:-0.4279 30:-0.1262 31:0.3469 32:-0.4707 33:0.3047 34:0.3309 35:-0.1522 36:0.147 37:1.8943 38:2.8941 39:1.4732 
1 1:-20.8428 2:9.7352 3:2.2365 4:5.7994 5:0.5576 6:0.2662 7:1.6511 8:-0.6765 9:1.0343 10:0.0581 11:0.6122 12:-0.1957 13:26.2215 14:6.4776 15:2.087 16:4.0468 17:0.8755 18:-0.0787 19:0.7412 20:-0.1597 21:0.6007 22:0.0309 23:0.3034 24:-0.3299 25:38.1795 26:4.6461 27:1.0747 28:2.2829 29:1.6166 30:0.302 31:0.2642 32:-0.3215 33:0.4772 34:-0.15 35:-0.0566 36:-0.2743 37:1.244 38:3.5894 39:2.1623 
1 1:10.819 2:8.805 3:1.064 4:6.2702 5:0.5885 6:0.3959 7:1.6164 8:-0.8035 9:1.0807 10:-0.6296 11:0.6267 12:-0.4732 13:41.113 14:1.9148 15:-0.7472 16:2.0978 17:-0.3248 18:0.2938 19:1.1087 20:-0.6274 21:0.6256 22:-0.6841 23:0.294 24:-0.2099 25:46.5771 26:0.0727 27:-0.6316 28:0.5919 29:-0.124 30:0.3422 31:1.0935 32:0.0344 33:1.1269 34:0.0026 35:0.0623 36:-0.2485 37:3.3514 38:3.6606 39:2.5886 
1 1:25.0308 2:4.8833 3:-1.6804 4:4.6473 5:-0.9738 6:0.1954 7:1.3123 8:-1.3531 9:0.7696 10:-0.9597 11:0.6688 12:-0.3058 13:42.5786 14:2.8224 15:-0.7123 16:2.82 17:-0.5068 18:-0.1586 19:0.0239 20:-1.0613 21:-0.1286 22:-0.1994 23:0.728 24:0.0633 25:42.7786 26:1.5269 27:-0.4832 28:1.6327 29:0.0379 30:0.1495 31:0.07 32:-0.9161 33:0.0635 34:0.0687 35:0.7495 36:0.1097 37:3.6334 38:3.2781 39:2.0188 
1 1:27.0833 2:5.0951 3:-1.3892 4:4.4751 5:-1.1293 6:-0.2029 7:1.05 8:-1.811 9:0.4634 10:-0.9945 11:1.4121 12:-0.1975 13:43.2169 14:2.4919 15:-0.6546 16:1.8345 17:-0.8986 18:-0.1535 19:0.8594 20:-0.4841 21:0.1263 22:-1.0121 23:0.4373 24:0.0395 25:42.7555 26:0.7602 27:-0.3525 28:0.8202 29:-0.3782 30:-0.13 31:0.5463 32:-0.3658 33:-0.4422 34:-0.4606 35:0.5371 36:0.4423 37:3.7732 38:3.2555 39:2.1032 
1 1:22.4514 2:4.7163 3:-1.3334 4:3.7048 5:-0.9702 6:-0.2619 7:0.8839 8:-1.7324 9:0.4573 10:-0.9028 11:0.9151 12:0.2348 13:40.9204 14:2.5738 15:-0.9963 16:1.6091 17:-0.2147 18:-0.2656 19:0.0547 20:-1.2266 21:0.6043 22:-0.1896 23:0.2135 24:0.231 25:41.9021 26:1.3225 27:-0.9341 28:0.4411 29:-0.3444 30:-0.4415 31:-0.1315 32:-1.0695 33:-0.2347 34:-0.382 35:-0.381 36:0.558 37:3.4855 38:3.1688 39:2.0112 
1 1:-3.496 2:4.9351 3:-0.2044 4:4.2174 5:-0.5238 6:0.412 7:0.9773 8:-1.7882 9:0.5781 10:-0.6463 11:-0.7958 12:-0.803 13:31.5997 14:2.5344 15:1.331 16:2.9993 17:0.079 18:1.0002 19:0.5116 20:-0.9356 21:-0.1552 22:-0.4682 23:-1.2144 24:-1.2383 25:39.8875 26:1.1446 27:1.6186 28:1.573 29:0.1123 30:1.0667 31:0.4862 32:-0.7922 33:-0.2585 34:-0.6908 35:-1.5707 36:-1.0661 37:2.0168 38:3.3564 39:2.0317 
1 1:-42.7544 2:9.1689 3:3.6951 4:4.9005 5:-0.8912 6:1.4463 7:0.3052 8:-2.0989 9:0.8016 10:-1.7581 11:-0.0219 12:-1.2726 13:19.216 14:6.107 15:2.4498 16:2.1983 17:-0.772 18:0.9066 19:-0.1767 20:-0.8827 21:0.7565 22:-0.8754 23:1.1989 24:-0.0814 25:38.9314 26:4.3597 27:2.2985 28:1.0714 29:-0.3253 30:1.3077 31:-1.0713 32:-0.7619 33:0.0328 34:-1.1393 35:0.0548 36:0.2788 37:0.1913 38:3.6238 39:1.3853 
1 1:-15.0568 2:10.4751 3:2.0402 4:4.5303 5:-1.9024 6:1.2255 7:-0.1061 8:-2.0267 9:0.7333 10:-2.0444 11:0.4018 12:-0.2547 13:30.7555 14:3.3627 15:-1.0865 16:1.9013 17:-1.202 18:-0.4261 19:0.2328 20:-0.9367 21:0.4314 22:-1.1938 23:-0.4399 24:-0.4034 25:40.9124 26:-0.0104 27:-1.8074 28:0.3369 29:-0.8611 30:-0.8097 31:-0.0507 32:-0.0896 33:0.1377 34:-0.1496 35:-0.8942 36:-0.1598 37:1.8515 38:2.7962 39:1.5029 
1 1:7.5757 2:6.6389 3:-1.8602 4:5.0148 5:-1.6258 6:0.2949 7:1.0105 8:-1.2712 9:0.7257 10:-1.3482 11:-0.7782 12:-0.1855 13:38.0319 14:3.844 15:-0.3391 16:3.053 17:-0.3541 18:0.5003 19:1.0279 20:-0.4607 21:0.4986 22:-0.6292 23:-0.501 24:0.1074 25:41.679 26:1.1557 27:0.1745 28:1.7314 29:0.5669 30:0.0284 31:0.6135 32:-0.1187 33:0.25 34:-1.0153 35:-0.6662 36:-0.1281 37:2.7295 38:3.463 39:2.3348 
1 1:16.0293 2:5.0579 3:-2.3701 4:5.5806 5:-0.9162 6:0.5838 7:0.9481 8:-1.044 9:0.8231 10:-0.9968 11:-0.2049 12:0.2389 13:38.6613 14:2.2048 15:-1.9813 16:2.5139 17:-1.0713 18:0.8209 19:0.1378 20:-0.5391 21:0.5705 22:-0.0398 23:0.5705 24:0.2337 25:41.5901 26:1.4706 27:-0.635 28:1.1001 29:-0.5873 30:0.6499 31:0.4011 32:0.143 33:1.0367 34:0.3309 35:0.384 36:0.2231 37:3.1394 38:3.18 39:1.7681 
1 1:20.9543 2:5.5361 3:-2.9983 4:5.4194 5:-1.4367 6:1.1184 7:0.7679 8:-1.1688 9:0.2775 10:-0.0475 11:-0.1096 12:0.1084 13:41.713 14:3.13 15:-1.2154 16:2.6138 17:-0.3809 18:0.0245 19:0.7896 20:-0.667 21:-0.5288 22:-0.0443 23:-0.3405 24:0.206 25:42.6494 26:2.1141 27:-0.7462 28:0.7368 29:-0.723 30:-0.1915 31:0.9288 32:-0.58 33:-0.1288 34:0.1147 35:0.1723 36:-0.1158 37:3.4441 38:3.353 39:1.9899 
1 1:22.3058 2:5.5113 3:-3.2357 4:4.5846 5:-1.7981 6:0.2726 7:0.6277 8:-1.5972 9:-0.2515 10:0.1556 11:-0.0537 12:-0.3613 13:40.4345 14:2.1718 15:-1.5004 16:2.3513 17:-1.0278 18:0.1934 19:0.0029 20:-0.8909 21:-0.2953 22:0.1862 23:0.1143 24:-0.1807 25:41.5435 26:0.9146 27:-0.8722 28:1.1442 29:-0.2313 30:-0.0423 31:0.2047 32:-0.4357 33:-0.5714 34:0.0605 35:0.0015 36:0.5491 37:3.524 38:3.1394 39:2.0311 
1 1:20.5956 2:4.32 3:-3.1168 4:4.2935 5:-1.4335 6:0.0235 7:0.9091 8:-1.652 9:0.158 10:-0.0842 11:1.0358 12:-0.1074 13:40.7636 14:1.9949 15:-1.7984 16:1.8382 17:-0.7227 18:0.0153 19:0.491 20:-0.5426 21:0.6046 22:-0.2569 23:0.8163 24:-0.3666 25:41.6032 26:0.5252 27:-0.5743 28:1.0954 29:-0.2333 30:0.0715 31:0.4659 32:-0.131 33:0.2213 34:-0.4108 35:0.6773 36:0.056 37:3.2129 38:3.1318 39:1.9704 
1 1:4.9644 2:5.4647 3:-1.8936 4:4.9936 5:-1.0619 6:-0.3962 7:1.1404 8:-1.8596 9:-0.0715 10:-0.607 11:0.2024 12:-0.1883 13:33.3994 14:3.3067 15:-0.5863 16:2.6791 17:-0.3765 18:-0.5186 19:0.9534 20:-0.7363 21:-0.0656 22:-0.4029 23:-0.4498 24:-0.2313 25:39.4765 26:2.1331 27:0.2187 28:1.2635 29:0.0192 30:-0.2636 31:1.0838 32:0.5207 33:0.3101 34:0.1802 35:-0.2639 36:-0.4527 37:2.4787 38:3.2683 39:2.0636 
1 1:18.6493 2:5.4185 3:-1.7015 4:5.0122 5:-1.0003 6:-0.6242 7:1.4916 8:-1.2827 9:-0.7588 10:-0.6557 11:-0.5474 12:-0.0652 13:42.033 14:2.0409 15:-1.2005 16:2.4096 17:-0.5473 18:0.2514 19:0.6151 20:-0.781 21:-0.7098 22:-0.4348 23:-0.2357 24:0.6647 25:44.4068 26:0.806 27:-0.9496 28:0.6947 29:-0.3483 30:0.4855 31:0.9384 32:0.4966 33:-0.3257 34:-0.4025 35:0.1892 36:0.9533 37:3.4037 38:3.4282 39:2.3205 
1 1:23.1431 2:4.1128 3:-2.166 4:4.4438 5:-1.1027 6:-0.4135 7:1.4845 8:-0.9217 9:-0.193 10:-0.6606 11:0.6911 12:-0.09 13:39.699 14:2.1829 15:-1.1925 16:2.3416 17:-0.5636 18:-0.8903 19:0.2584 20:-0.8463 21:0.1861 22:-0.1526 23:0.9104 24:-0.3986 25:39.147 26:1.0723 27:-0.9093 28:0.9153 29:-0.5815 30:-0.6152 31:-0.1669 32:-0.7773 33:-0.111 34:-0.4043 35:0.6173 36:0.3519 37:3.4432 38:3.1052 39:2.0626 
1 1:15.9582 2:5.572 3:-1.6 4:3.9742 5:-0.6626 6:-0.6441 7:1.1937 8:-0.7273 9:0.3085 10:-0.8035 11:0.1809 12:0.2719 13:39.339 14:3.6473 15:-0.2669 16:1.6828 17:-0.002 18:-0.1577 19:0.7585 20:0.1563 21:0.1176 22:-0.4385 23:-0.8279 24:0.4419 25:41.0629 26:2.3781 27:-0.3815 28:0.7793 29:0.274 30:-0.1518 31:0.2769 32:0.2743 33:0.1985 34:0.1046 35:-0.825 36:0.7502 37:3.1062 38:3.2682 39:2.0224 
1 1:24.7332 2:5.3409 3:-1.6408 4:3.3586 5:-0.3909 6:-0.1883 7:1.4874 8:-0.7549 9:0.4914 10:-0.8571 11:-0.7333 12:0.4133 13:42.9677 14:1.8457 15:-1.3339 16:1.7783 17:-0.5789 18:-0.074 19:0.8974 20:-1.0069 21:0.1266 22:-0.5395 23:-0.0826 24:-0.0863 25:43.3839 26:0.3076 27:-1.1433 28:0.8188 29:-0.6427 30:-0.3181 31:0.3594 32:-0.6551 33:-0.0995 34:-0.6004 35:-0.4412 36:-0.2124 37:3.6633 38:3.2747 39:2.0023 
1 1:23.6924 2:4.1596 3:-1.6037 4:3.6913 5:-0.8132 6:0.5696 7:1.6751 8:-0.8941 9:0.7238 10:-0.5811 11:-0.3012 12:0.1994 13:41.0391 14:2.3576 15:-0.5316 16:2.0575 17:-0.3542 18:0.7132 19:0.9083 20:0.0534 21:0.4201 22:0.2726 23:0.3696 24:0.0934 25:41.1554 26:1.4757 27:-0.664 28:1.4773 29:-0.6364 30:0.2548 31:0.8061 32:0.2927 33:-0.0486 34:0.7369 35:0.2908 36:0.0472 37:3.5609 38:3.2595 39:2.1332 
1 1:19.6711 2:5.079 3:-0.4962 4:4.9313 5:-1.4173 6:0.2785 7:1.6565 8:-1.3172 9:-0.1354 10:-0.059 11:0.3709 12:0.2834 13:39.596 14:2.3451 15:0.2812 16:2.8506 17:-0.3529 18:-0.0919 19:0.5889 20:-0.9612 21:-0.3995 22:-0.3586 23:-0.092 24:-0.2391 25:41.0712 26:1.4727 27:0.4674 28:1.7567 29:-0.1608 30:-0.3008 31:0.1434 32:-0.5056 33:-0.2257 34:0.4872 35:0.3643 36:-0.5756 37:3.4282 38:3.2411 39:1.9092 
1 1:21.1126 2:6.0158 3:-0.0948 4:5.1202 5:-1.5219 6:-0.3932 7:1.5247 8:-1.507 9:-0.2485 10:-0.8401 11:0.3564 12:-0.0169 13:41.1382 14:3.4087 15:-0.3579 16:2.3332 17:-1.0518 18:-0.0168 19:0.8535 20:-0.5436 21:0.1079 22:-0.7733 23:0.3121 24:0.4904 25:40.8524 26:1.0825 27:-0.782 28:1.1655 29:-0.0624 30:0.4089 31:0.4625 32:0.1773 33:0.1849 34:-0.4776 35:0.271 36:0.0295 37:3.4745 38:3.1873 39:2.0989 
1 1:24.0387 2:5.9398 3:-1.5757 4:4.1514 5:-0.8122 6:0.0149 7:1.6657 8:-0.8263 9:0.8938 10:-1.1733 11:0.4482 12:-0.0386 13:42.8828 14:2.9782 15:-1.0594 16:1.454 17:-0.3899 18:-0.2639 19:0.7501 20:-0.3988 21:0.7977 22:-0.2662 23:0.3562 24:-0.2166 25:42.2802 26:1.4671 27:-1.1949 28:0.0483 29:-0.4679 30:-0.0328 31:-0.0703 32:-0.293 33:0.2397 34:-0.0725 35:0.5216 36:0.1685 37:3.6327 38:3.3445 39:2.1094 
1 1:19.5019 2:4.9683 3:-2.0878 4:3.9289 5:-0.8596 6:0.2289 7:1.2602 8:-0.3323 9:1.163 10:-0.1311 11:0.1245 12:-0.4348 13:39.3803 14:1.7548 15:-1.1657 16:2.3603 17:-0.3499 18:0.1267 19:0.8028 20:0.0314 21:0.5745 22:0.0347 23:-0.2745 24:-0.4807 25:41.2239 26:0.3725 27:-0.9878 28:0.8591 29:-0.3309 30:-0.1843 31:0.2879 32:0.2319 33:0.2752 34:-0.0581 35:-0.0946 36:-0.4656 37:3.2538 38:3.1042 39:1.8797 
1 1:23.5559 2:4.9768 3:-1.2803 4:4.4135 5:-0.9081 6:-0.1156 7:0.98 8:-0.3272 9:0.5394 10:-0.1061 11:-0.1967 12:-0.4622 13:42.2827 14:3.0996 15:-0.3805 16:2.2163 17:-0.6501 18:-0.0403 19:0.3868 20:-0.6462 21:-0.4248 22:-0.1461 23:0.1981 24:0.0757 25:42.6889 26:1.2055 27:-0.716 28:0.8714 29:-0.5114 30:-0.1963 31:0.827 32:-0.2136 33:-0.5447 34:-0.4821 35:0.4829 36:-0.0495 37:3.4845 38:3.312 39:2.098 
1 1:29.4523 2:4.5972 3:-1.9519 4:3.4609 5:-1.6103 6:-1.1008 7:0.9004 8:-1.6568 9:0.243 10:-1.1842 11:-0.2944 12:-0.3711 13:44.295 14:2.2421 15:-1.2672 16:1.3392 17:-1.3438 18:-0.6816 19:0.4465 20:-0.7195 21:0.7316 22:-0.6861 23:-0.7338 24:-0.3187 25:43.2036 26:1.0348 27:-0.9676 28:0.2696 29:-1.3539 30:-0.5049 31:0.4147 32:-0.5149 33:-0.0872 34:-0.2485 35:-0.2394 36:0.1423 37:3.9196 38:3.3281 39:2.1811 
1 1:27.8967 2:4.2852 3:-2.5478 4:3.0845 5:-2.0088 6:-1.1286 7:0.6221 8:-2.3407 9:0.0298 10:-1.1656 11:-0.0207 12:-0.6869 13:42.9372 14:2.0022 15:-1.203 16:1.8944 17:-0.4937 18:-0.3491 19:0.0716 20:-1.2838 21:-0.0899 22:-0.4841 23:0.7352 24:-0.6404 25:42.6859 26:1.5798 27:-0.4859 28:0.9986 29:-0.0854 30:0.1932 31:-0.1762 32:-0.5677 33:-0.2763 34:0.0196 35:0.7883 36:-0.4412 37:3.7298 38:3.3174 39:2.2504 
1 1:27.6695 2:4.4465 3:-1.9479 4:3.7382 5:-2.4448 6:-0.8654 7:1.0372 8:-1.8328 9:-0.1432 10:-0.3935 11:0.2347 12:-0.0028 13:42.7152 14:1.9877 15:-0.4799 16:1.6535 17:-1.7332 18:-0.8674 19:1.0175 20:-0.8652 21:-0.1116 22:-0.2217 23:-0.3621 24:0.2598 25:41.447 26:0.4177 27:-0.4009 28:0.3563 29:-1.2111 30:-0.8752 31:0.7113 32:-0.2437 33:-0.0967 34:-0.2667 35:0.0153 36:-0.1967 37:3.7627 38:3.3513 39:2.2449 
1 1:25.8274 2:3.9522 3:-2.1926 4:3.5767 5:-2.565 6:-0.1764 7:1.9044 8:-0.9079 9:0.3317 10:-0.2783 11:0.4671 12:0.4823 13:42.8084 14:1.9546 15:-1.4084 16:1.9188 17:-0.7534 18:0.3701 19:1.1552 20:-0.3114 21:0.1607 22:-0.2807 23:0.4052 24:0.5253 25:42.2037 26:0.8191 27:-0.7773 28:0.3903 29:-0.6778 30:0.2092 31:0.8624 32:-0.3317 33:-0.38 34:-0.6819 35:0.2653 36:-0.1017 37:3.7801 38:3.3364 39:2.0523 
1 1:27.9858 2:3.8573 3:-2.5846 4:3.731 5:-1.6359 6:-0.008 7:0.6008 8:-1.701 9:0.6201 10:0.0979 11:1.0228 12:0.0931 13:43.0178 14:2.1714 15:-1.3361 16:1.7136 17:-1.0584 18:-0.5889 19:-0.8236 20:-1.3448 21:0.7336 22:0.1413 23:0.296 24:0.0122 25:41.8877 26:0.9929 27:-0.4914 28:0.641 29:-0.7528 30:-1.0749 31:-0.4896 32:-1.151 33:0.3835 34:-0.9645 35:-0.3509 36:-0.1775 37:3.9156 38:3.266 39:2.0063 
1 1:18.8422 2:4.5584 3:-1.856 4:4.4715 5:-0.7218 6:-0.6308 7:0.1144 8:-1.5462 9:0.8816 10:0.2241 11:0.496 12:-0.1205 13:39.6076 14:2.7778 15:-0.6906 16:3.0087 17:0.4812 18:0.2971 19:0.8099 20:-0.0324 21:0.4483 22:0.3663 23:0.3428 24:-0.1704 25:40.2888 26:1.8322 27:0.1801 28:1.885 29:0.6406 30:-0.0096 31:0.5707 32:0.3892 33:0.5602 34:-0.514 35:-0.2305 36:0.0943 37:3.2594 38:3.2608 39:2.0297 
1 1:25.248 2:4.5076 3:-2.1346 4:3.6718 5:-1.0959 6:-0.8035 7:0.5405 8:-0.8722 9:0.3271 10:-0.9663 11:-0.1244 12:0.166 13:43.1598 14:1.5051 15:-1.8124 16:0.8476 17:-1.2339 18:-0.8503 19:-0.1539 20:-0.6417 21:-0.3031 22:-0.9815 23:-0.2339 24:0.1955 25:44.0339 26:1.1451 27:-1.0686 28:0.5708 29:-0.4103 30:-0.4332 31:-0.0729 32:-0.2542 33:-0.1489 34:-0.7473 35:0.0455 36:0.3639 37:3.5954 38:3.429 39:2.0963 
1 1:13.0216 2:4.4795 3:-1.9713 4:3.3487 5:-1.4292 6:-0.1883 7:0.7856 8:-1.6357 9:0.0078 10:-0.9999 11:-0.1726 12:0.172 13:35.8935 14:2.4698 15:-0.4117 16:1.8318 17:-0.7334 18:0.2062 19:0.4999 20:-1.2059 21:0.5108 22:0.0411 23:0.1381 24:-0.284 25:38.6249 26:1.2522 27:-0.2736 28:0.7868 29:-0.2231 30:0.0115 31:0.2746 32:-0.6406 33:0.7317 34:0.026 35:0.0544 36:-0.444 37:2.8789 38:2.9728 39:1.6252 
1 1:15.7556 2:4.7852 3:-0.695 4:4.2033 5:-0.6904 6:0.7423 7:1.6471 8:-1.5279 9:0.4758 10:-0.4779 11:0.6926 12:-0.1177 13:40.7553 14:2.5774 15:-0.0488 16:2.3194 17:-0.0651 18:0.4249 19:1.0467 20:-0.3921 21:-0.1695 22:-0.6554 23:0.4321 24:0.2324 25:43.4221 26:0.869 27:-0.5789 28:0.3401 29:-0.4459 30:0.166 31:0.3116 32:-0.1279 33:0.1461 34:-0.4528 35:0.3744 36:0.2987 37:3.0953 38:3.2026 39:2.1025 
1 1:16.834 2:4.3537 3:-1.1035 4:4.3761 5:-0.8386 6:0.4726 7:0.7819 8:-1.8243 9:-0.2376 10:-1.1596 11:1.2652 12:-0.3777 13:39.9058 14:1.9076 15:-0.7263 16:2.3268 17:-0.693 18:0.3465 19:0.2132 20:-1.4535 21:-0.7258 22:-1.0644 23:0.5203 24:-0.4161 25:41.6514 26:0.7735 27:-0.7869 28:0.585 29:-0.797 30:0.0133 31:-0.0825 32:-0.7293 33:-1.0164 34:-1.0433 35:0.0135 36:-0.3237 37:3.1354 38:3.2756 39:2.0314 
1 1:12.0762 2:5.3243 3:-0.7591 4:4.5879 5:-1.4674 6:0.2068 7:0.4061 8:-2.0378 9:-1.012 10:-0.6737 11:1.1515 12:-0.6046 13:37.8352 14:3.0662 15:-0.469 16:2.4866 17:-0.9077 18:0.0076 19:0.1589 20:-0.4312 21:-0.1196 22:0.7862 23:0.8037 24:-0.2785 25:41.0713 26:1.457 27:-0.2425 28:1.0433 29:-1.0447 30:0.1338 31:0.1773 32:0.2493 33:0.0152 34:0.7717 35:0.4292 36:-0.1198 37:2.8954 38:3.1764 39:1.9737 
1 1:15.2352 2:5.6211 3:0.1659 4:4.9396 5:-1.668 6:0.4375 7:1.2179 8:-1.443 9:-0.3239 10:-0.0074 11:0.2309 12:-0.6266 13:40.7379 14:2.7022 15:0.6269 16:2.642 17:-0.6207 18:0.06 19:0.8521 20:-0.6577 21:0.1263 22:-0.3027 23:-0.1773 24:-0.5641 25:43.6335 26:1.5336 27:-0.2662 28:1.2659 29:-0.3045 30:-0.1134 31:0.6441 32:0.0452 33:0.3538 34:0.3257 35:0.1869 36:-0.4526 37:3.364 38:3.4786 39:2.2016 
1 1:20.546 2:4.0134 3:-0.4453 4:5.0146 5:-1.4861 6:-0.1405 7:0.9283 8:-1.9589 9:-0.1618 10:-0.8763 11:-0.2593 12:-0.8302 13:41.968 14:1.4297 15:-0.7922 16:2.4291 17:-0.5834 18:0.0155 19:0.4289 20:-1.2945 21:-0.3985 22:-0.8504 23:-0.0358 24:-0.0632 25:43.4854 26:0.4467 27:-0.615 28:1.4431 29:-0.3972 30:-0.2919 31:-0.0979 32:-0.4551 33:-0.162 34:-0.0298 35:0.3741 36:0.0427 37:3.69 38:3.3277 39:2.1018 
1 1:20.4771 2:2.5016 3:-0.7971 4:4.3575 5:-2.471 6:-0.9458 7:0.2524 8:-2.968 9:0.1869 10:-1.0157 11:0.7458 12:-0.806 13:42.4429 14:1.1867 15:0.1463 16:1.7852 17:-1.637 18:-0.5517 19:0.2802 20:-1.5649 21:0.4691 22:-0.2768 23:0.5167 24:-0.5758 25:44.3629 26:0.5432 27:-0.0447 28:0.8621 29:-0.8702 30:-0.0759 31:0.7816 32:-0.4003 33:0.469 34:0.0985 35:0.7059 36:-0.0735 37:3.2703 38:3.3446 39:2.0138 
1 1:14.2608 2:3.8527 3:0.7055 4:4.5606 5:-2.7134 6:-0.832 7:0.8126 8:-2.8871 9:0.5184 10:-1.2913 11:0.4301 12:-0.4978 13:39.4907 14:2.8183 15:0.9118 16:2.488 17:-1.1969 18:-0.4761 19:0.1709 20:-1.8509 21:-0.3879 22:-1.1899 23:-0.2023 24:-0.3458 25:42.8501 26:2.3737 27:1.3288 28:1.4054 29:-0.2523 30:-0.3341 31:0.4062 32:-0.8125 33:-0.5355 34:-1.245 35:-0.6935 36:-0.5321 37:2.8331 38:3.4315 39:2.0943 
1 1:-9.9825 2:7.5331 3:2.6843 4:5.825 5:-1.7035 6:-0.5885 7:1.1733 8:-2.5468 9:-0.4211 10:-2.1908 11:-0.4771 12:-0.9427 13:29.5206 14:4.5193 15:1.4518 16:3.4491 17:-0.496 18:-0.1489 19:0.314 20:-1.2409 21:-0.0781 22:-1.0374 23:-0.0864 24:-0.512 25:38.2557 26:2.9852 27:1.5808 28:2.1986 29:0.3563 30:-0.1224 31:-0.201 32:-0.9996 33:-0.252 34:-0.637 35:0.0987 36:-0.4459 37:1.8151 38:3.5464 39:1.9136 
1 1:-5.3227 2:7.6001 3:2.2934 4:5.9462 5:-2.3018 6:0.7487 7:-0.0078 8:-3.5873 9:-1.5862 10:-2.0508 11:-0.5518 12:-1.8655 13:34.3807 14:2.5906 15:0.7287 16:2.771 17:-1.7372 18:0.6195 19:-0.0874 20:-1.89 21:-1.234 22:-0.7912 23:-0.5564 24:-1.1662 25:44.0939 26:0.6159 27:0.4001 28:1.8229 29:-0.71 30:0.5312 31:-0.5488 32:-1.8821 33:-1.533 34:-0.4921 35:-0.5692 36:-0.9125 37:2.3805 38:3.5218 39:1.9031 
1 1:-0.6562 2:4.6496 3:0.9209 4:5.7681 5:-3.0068 6:1.2269 7:-0.5625 8:-4.1825 9:-1.1915 10:-1.7501 11:-1.2429 12:-1.9667 13:36.2277 14:1.8819 15:-0.0839 16:2.9036 17:-1.4626 18:0.7481 19:-0.0275 20:-1.566 21:0.3044 22:-0.6527 23:-0.6928 24:-0.6816 25:41.9955 26:-0.3329 27:-0.2788 28:1.1916 29:-0.8083 30:0.1179 31:0.5116 32:-0.5209 33:0.3834 34:-0.239 35:-0.5784 36:-0.119 37:2.2394 38:3.3013 39:1.9671 
1 1:3.1077 2:4.1679 3:1.379 4:5.7997 5:-2.9594 6:-0.1439 7:-0.3368 8:-3.4788 9:-0.1998 10:-2.172 11:-0.6443 12:-0.6979 13:37.1404 14:2.7774 15:1.4129 16:2.4208 17:-1.5537 18:-0.8369 19:-0.4947 20:-2.1724 21:-0.3408 22:-1.4706 23:0.3445 24:0.2433 25:43.5213 26:1.5464 27:0.9183 28:0.4386 29:-0.9605 30:-0.4398 31:-0.4563 32:-0.993 33:-0.2409 34:-0.4571 35:0.5432 36:0.8405 37:2.5136 38:3.7045 39:2.4017 
1 1:5.8731 2:4.5928 3:1.1392 4:4.9765 5:-2.9588 6:-1.5607 7:-0.1405 8:-2.5648 9:0.2395 10:-1.9969 11:0.7946 12:-0.0589 13:36.5808 14:2.2055 15:-0.0958 16:2.5263 17:-1.4289 18:-0.766 19:0.4401 20:-0.7863 21:0.3922 22:-0.7165 23:0.3179 24:0.0013 25:42.1626 26:1.3748 27:-0.333 28:0.5142 29:-0.8293 30:-0.5092 31:0.4277 32:-0.2699 33:0.5979 34:-0.1333 35:0.2646 36:0.2197 37:2.5959 38:3.2791 39:2.0131 
1 1:15.9444 2:4.1962 3:-0.609 4:3.9409 5:-2.3326 6:-1.0841 7:0.4438 8:-1.7074 9:0.3658 10:-0.9679 11:0.8213 12:-0.0832 13:40.2179 14:1.9903 15:-0.8862 16:1.9095 17:-0.998 18:-0.1209 19:0.1355 20:-0.6616 21:0.0655 22:-0.4871 23:0.3647 24:-0.2109 25:42.5612 26:1.1684 27:-1.1454 28:0.7811 29:-1.0171 30:0.1199 31:-0.1898 32:-0.2973 33:-0.1862 34:-0.5247 35:-0.1266 36:0.3072 37:3.0675 38:3.4325 39:2.0772 
1 1:12.4857 2:3.7633 3:-1.1056 4:3.6825 5:-1.5394 6:0.801 7:1.0697 8:-1.3114 9:0.7367 10:-0.6828 11:0.7225 12:0.289 13:38.3468 14:1.7492 15:0.2299 16:1.8098 17:-0.5644 18:0.7743 19:0.982 20:-0.4663 21:0.8618 22:-0.2674 23:0.2696 24:0.2088 25:41.4618 26:1.0049 27:0.1116 28:0.9148 29:-0.5466 30:0.7707 31:0.6928 32:0.1768 33:0.478 34:-0.6093 35:-0.0269 36:0.3171 37:2.8361 38:3.2709 39:2.1491 
1 1:11.5936 2:3.6877 3:-0.5427 4:3.8867 5:-1.0929 6:0.8146 7:0.9248 8:-1.0112 9:1.1665 10:-0.7739 11:0.4286 12:0.1785 13:38.5776 14:1.931 15:-0.6506 16:1.9793 17:-0.6303 18:0.1253 19:-0.0156 20:-0.771 21:0.2955 22:-0.3374 23:0.3582 24:-0.1999 25:43.1804 26:1.4325 27:-0.042 28:1.4335 29:-0.2705 30:0.0985 31:0.3984 32:-0.2191 33:0.5844 34:-0.2417 35:0.3144 36:-0.2673 37:2.6061 38:3.4364 39:2.0383 
1 1:15.6977 2:3.5396 3:-0.3623 4:3.8519 5:-1.632 6:-0.275 7:1.6461 8:-1.3071 9:0.4961 10:-0.5398 11:-0.3878 12:-0.8072 13:39.5052 14:1.2737 15:0.1351 16:1.9449 17:-1.0173 18:-0.3298 19:1.454 20:-0.5595 21:-0.0818 22:-0.3676 23:-0.6771 24:-0.8079 25:41.6044 26:0.4954 27:0.1873 28:1.144 29:-0.7351 30:-0.2602 31:1.1805 32:-0.4326 33:0.0519 34:-0.4518 35:-0.3467 36:-0.4232 37:2.9487 38:3.2623 39:1.8231 
1 1:21.8146 2:3.7648 3:-1.0641 4:4.5394 5:-1.3072 6:-0.3575 7:0.9325 8:-1.7628 9:0.3539 10:0.0975 11:-0.3813 12:-0.5468 13:41.8466 14:2.4776 15:-1.1308 16:2.5441 17:-0.2359 18:-0.2101 19:-0.5368 20:-1.2729 21:-0.0115 22:0.1476 23:-0.0919 24:0.222 25:42.3104 26:1.1081 27:-0.7895 28:1.4584 29:-0.0982 30:-0.3369 31:-1.0451 32:-0.6466 33:-0.4274 34:-0.3842 35:-0.4391 36:0.1116 37:3.521 38:3.2712 39:2.1067 
1 1:22.8963 2:5.3212 3:-1.3948 4:4.3323 5:-0.9895 6:-0.4777 7:0.166 8:-1.9601 9:0.4719 10:-0.0988 11:0.1604 12:0.2613 13:41.4514 14:2.9383 15:-0.177 16:1.5742 17:-0.555 18:-0.1783 19:0.5741 20:-0.8504 21:0.5745 22:-0.036 23:0.4327 24:0.0058 25:42.1285 26:1.9336 27:-0.052 28:0.3688 29:-0.3289 30:0.1901 31:0.6927 32:-0.2938 33:-0.1773 34:-0.3391 35:0.2719 36:-0.2676 37:3.6492 38:3.3837 39:2.2805 
1 1:28.333 2:5.5526 3:-2.2381 4:2.8173 5:-1.9204 6:-0.7085 7:0.9241 8:-1.1602 9:1.0188 10:-0.5221 11:0.5296 12:0.0727 13:43.8103 14:2.3899 15:-2.0008 16:1.3512 17:-1.2867 18:-0.5386 19:0.3435 20:-0.0934 21:0.6545 22:-0.0629 23:0.1567 24:0.1453 25:43.2817 26:1.1007 27:-1.5005 28:0.0673 29:-0.6756 30:-0.2241 31:0.3642 32:0.3317 33:0.434 34:0.1865 35:0.3422 36:-0.0927 37:3.8448 38:3.3127 39:2.2241 
1 1:-32.6193 2:4.8159 3:-3.1058 4:3.6194 5:-0.4067 6:0.1397 7:1.2851 8:-0.7332 9:1.1836 10:-0.5524 11:-0.0711 12:-0.3953 13:13.1009 14:2.7215 15:-1.3177 16:2.6143 17:0.8913 18:0.3681 19:0.9308 20:-0.9489 21:0.5256 22:-0.4565 23:-0.3724 24:-0.7682 25:27.8295 26:1.8862 27:-0.6309 28:2.3446 29:1.7792 30:0.2201 31:0.6109 32:-0.6877 33:-0.1957 34:-0.1024 35:-0.5542 36:-0.7861 37:-0.1843 38:2.6887 39:1.7855 
1 1:-49.8492 2:6.4759 3:-3.8571 4:4.6857 5:0.9673 6:0.0975 7:2.3125 8:-1.0665 9:1.2349 10:0.5652 11:0.4717 12:-0.3457 13:16.5359 14:2.9841 15:-1.8225 16:1.9503 17:-0.2643 18:0.0521 19:1.2479 20:-0.1884 21:1.0615 22:0.9407 23:0.5758 24:0.7001 25:37.7397 26:1.6114 27:-1.3172 28:1.2295 29:-0.2222 30:-0.2332 31:0.4332 32:-0.4024 33:0.7716 34:1.0802 35:0.1297 36:0.3095 37:-0.9994 38:3.1625 39:1.3019 
1 1:9.2334 2:5.9741 3:-4.4414 4:3.9203 5:-0.3502 6:-0.6034 7:2.1371 8:-0.8288 9:0.7158 10:0.6084 11:1.0582 12:0.1457 13:44.2607 14:2.9198 15:-2.6176 16:1.7824 17:-0.2843 18:-0.1106 19:1.0966 20:-0.6032 21:-0.5179 22:-0.5959 23:0.5721 24:-0.3801 25:47.9932 26:0.5999 27:-1.433 28:0.8731 29:-0.3168 30:0.3118 31:0.5479 32:-0.7978 33:-0.5924 34:-0.6909 35:0.3074 36:-0.1252 37:2.826 38:3.7555 39:2.4577 
1 1:24.7574 2:4.6128 3:-3.1727 4:4.0842 5:-0.8373 6:-0.1455 7:1.2205 8:-1.1075 9:0.2674 10:-0.4565 11:0.3013 12:-0.1116 13:41.118 14:2.6542 15:-1.0283 16:2.0115 17:-0.5411 18:-0.4138 19:0.1844 20:-0.5079 21:0.6259 22:0.091 23:0.1739 24:0.2032 25:40.6402 26:1.7067 27:-0.3409 28:0.5522 29:-0.6805 30:-0.0439 31:0.365 32:-0.5687 33:0.2749 34:0.2899 35:0.6518 36:0.1291 37:3.711 38:3.2516 39:1.9981 
1 1:26.4205 2:4.2057 3:-3.0999 4:3.6071 5:-1.5504 6:0.0133 7:1.434 8:-1.1141 9:0.3187 10:-0.095 11:0.5916 12:0.42 13:42.8581 14:1.4347 15:-1.9176 16:2.0728 17:-0.6694 18:-0.0757 19:0.8862 20:-0.3577 21:-0.2121 22:0.1117 23:0.3384 24:0.4901 25:41.882 26:0.2198 27:-0.8445 28:0.7875 29:-0.5184 30:-0.1392 31:0.5387 32:-0.0835 33:-0.2698 34:0.3249 35:0.3366 36:0.864 37:3.6581 38:3.1282 39:2.0405 
1 1:19.7796 2:3.7619 3:-2.9276 4:3.1897 5:-2.0226 6:-0.2851 7:2.0338 8:-0.8504 9:-0.0895 10:-0.4886 11:1.0651 12:0.6362 13:39.0952 14:2.1168 15:-1.0682 16:1.1751 17:-1.2685 18:0.2495 19:1.1411 20:-0.4464 21:0.0129 22:-0.6833 23:0.5538 24:-0.0384 25:39.4026 26:1.3333 27:0.0685 28:0.9686 29:-0.2615 30:0.3979 31:0.3589 32:-0.5346 33:-0.3665 34:-0.7737 35:0.2079 36:0.1086 37:3.0625 38:3.1014 39:2.0023 
1 1:17.2163 2:5.2318 3:-3.0632 4:3.674 5:-2.1963 6:-0.7135 7:1.4735 8:-1.045 9:-0.6066 10:-1.1145 11:0.4846 12:-0.0167 13:39.8946 14:3.387 15:-1.9378 16:1.9505 17:-1.2463 18:-0.7518 19:0.4895 20:-0.6226 21:-0.5225 22:-0.4514 23:0.0228 24:0.1619 25:41.9867 26:2.1389 27:-1.0891 28:0.5644 29:-1.0165 30:-0.6383 31:0.0855 32:-0.4774 33:-0.7702 34:-0.4114 35:-0.1948 36:0.2563 37:2.923 38:3.2826 39:2.0872 
1 1:9.3377 2:6.6308 3:-3.019 4:4.376 5:-1.369 6:-0.5143 7:0.7891 8:-1.5625 9:-0.4499 10:-1.1672 11:0.2241 12:-0.1323 13:35.36 14:3.2303 15:-1.0175 16:3.1184 17:0.0366 18:0.2753 19:0.3243 20:-0.9392 21:0.1448 22:-0.528 23:0.1784 24:-0.2323 25:38.5712 26:1.5797 27:-0.1173 28:1.8842 29:0.1891 30:0.2631 31:0.0619 32:-0.3082 33:0.4052 34:-0.1996 35:0.3294 36:0.2449 37:2.6946 38:3.206 39:1.6151 
1 1:16.6226 2:5.8204 3:-2.1995 4:4.4672 5:-0.5285 6:-0.2424 7:1.3093 8:-1.6343 9:0.4042 10:-1.2062 11:0.0517 12:-0.028 13:40.2752 14:2.4439 15:-1.2989 16:1.3755 17:-0.3814 18:-0.5316 19:0.9547 20:-0.7101 21:0.4384 22:-0.9077 23:-0.133 24:-0.1696 25:42.822 26:0.9229 27:-0.7322 28:0.5324 29:-0.8084 30:-0.4844 31:0.3878 32:-0.3936 33:0.4352 34:-0.4792 35:-0.2176 36:-0.1941 37:3.2214 38:3.2105 39:1.9569 
1 1:20.9979 2:5.0642 3:-2.5185 4:3.6203 5:-0.8881 6:-0.1248 7:2.0186 8:-1.0123 9:0.6324 10:-0.5744 11:-0.0869 12:-0.1503 13:40.4122 14:2.587 15:-1.4464 16:1.665 17:-0.6064 18:0.1729 19:0.7986 20:-0.4491 21:-0.0204 22:-0.146 23:-0.0309 24:-0.2054 25:41.5552 26:1.6307 27:-0.5345 28:0.7582 29:-0.0849 30:0.0847 31:-0.255 32:-0.357 33:0.0197 34:-0.3378 35:-0.0057 36:-0.2995 37:3.3224 38:3.3096 39:2.143 
1 1:25.6036 2:5.2292 3:-2.1624 4:3.5386 5:-0.7223 6:0.2492 7:0.9786 8:-1.1101 9:0.5602 10:-0.9806 11:-0.3371 12:-0.0199 13:42.6084 14:2.225 15:-1.167 16:2.189 17:-0.0377 18:0.1683 19:0.154 20:-0.7305 21:0.4039 22:-0.3056 23:-0.0817 24:0.2362 25:42.4675 26:0.6629 27:-0.9816 28:1.3944 29:-0.1762 30:0.0912 31:-0.6583 32:-0.3727 33:0.0293 34:-0.5083 35:0.0582 36:0.1712 37:3.7159 38:3.3165 39:2.2223 
1 1:25.1105 2:5.8624 3:-1.9136 4:4.1599 5:-0.7346 6:-0.1251 7:-0.3443 8:-0.7854 9:0.3845 10:-1.2189 11:-0.4849 12:0.3787 13:42.2886 14:3.5845 15:-0.3391 16:2.1728 17:-0.372 18:-0.24 19:-0.3097 20:-0.1435 21:0.1944 22:-0.4736 23:-0.3187 24:0.1847 25:42.1918 26:1.8284 27:0.056 28:1.4736 29:0.0286 30:0.0465 31:-0.6297 32:-0.1345 33:-0.225 34:0.1403 35:-0.1456 36:-0.1332 37:3.6232 38:3.262 39:2.1837 
1 1:-37.1796 2:10.9807 3:-3.1054 4:3.9276 5:-1.9771 6:-0.6676 7:0.1041 8:-0.6771 9:0.8289 10:-0.5926 11:-0.4057 12:-0.0536 13:25.7852 14:8.3007 15:-3.0251 16:1.7218 17:-1.6151 18:-0.2829 19:0.3492 20:-0.5229 21:0.8699 22:-0.511 23:-0.4312 24:-0.0731 25:45.6402 26:6.0056 27:-2.3623 28:0.5296 29:-0.6724 30:0.4413 31:0.2245 32:-0.4338 33:0.7714 34:-0.5024 35:-0.6738 36:0.1106 37:-0.1812 38:3.8411 39:2.0633 
1 1:-27.8921 2:13.0979 3:-3.0744 4:3.7113 5:-2.1487 6:-1.2974 7:0.329 8:-1.738 9:1.0236 10:-0.7241 11:-0.7751 12:-0.3638 13:18.1967 14:3.9141 15:0.0519 16:2.0183 17:-0.7129 18:-0.9281 19:0.0183 20:-0.8686 21:0.0701 22:-0.2356 23:0.1054 24:-0.2653 25:42.5616 26:0.7766 27:-0.5238 28:1.1994 29:0.4157 30:-0.0984 31:-0.6186 32:-0.4186 33:0.2364 34:-0.4189 35:0.5252 36:0.0071 37:0.7287 38:3.2045 39:0.6907 
1 1:7.4933 2:8.8757 3:-1.6656 4:3.927 5:-1.3413 6:-0.9993 7:-0.2527 8:-2.288 9:0.3329 10:-0.6935 11:-0.5816 12:-0.0786 13:40.6747 14:4.1198 15:-1.1896 16:1.5483 17:-0.7289 18:-0.1478 19:-0.0105 20:-1.386 21:0.1104 22:-0.5559 23:-0.8451 24:-0.1488 25:43.6263 26:0.6688 27:-0.7186 28:0.4655 29:-0.3142 30:0.3667 31:0.0636 32:-0.6313 33:-0.3103 34:-0.4351 35:-0.247 36:-0.0608 37:2.7406 38:3.3841 39:2.3652 
1 1:13.9343 2:6.2652 3:-1.4063 4:4.5274 5:-1.4604 6:-0.1142 7:0.4977 8:-1.806 9:0.0253 10:-0.8471 11:0.5377 12:0.0173 13:38.5384 14:3.2321 15:-0.6179 16:2.834 17:-0.5624 18:-0.1103 19:0.4897 20:-0.6307 21:-0.0616 22:-0.4046 23:1.1482 24:0.3149 25:40.7335 26:1.7114 27:-0.2374 28:1.7831 29:0.0343 30:0.4278 31:0.7059 32:-0.2902 33:-0.0894 34:-0.5408 35:0.7881 36:-0.0413 37:2.9766 38:3.377 39:2.2902 
1 1:3.2438 2:6.0432 3:-1.1613 4:4.7117 5:-1.3351 6:-0.7082 7:1.0136 8:-1.2531 9:-0.0096 10:-1.1836 11:0.6763 12:-0.1972 13:33.5961 14:2.7861 15:-0.4545 16:2.1217 17:-0.7733 18:-0.71 19:0.6388 20:-0.7604 21:-0.0652 22:-0.8547 23:-0.186 24:-0.2822 25:40.7948 26:1.6611 27:0.0232 28:1.0594 29:-0.2809 30:-0.4663 31:0.4101 32:-0.3719 33:0.1351 34:-0.5644 35:-0.2102 36:-0.3755 37:2.3539 38:3.3488 39:2.2597 
1 1:-2.7043 2:7.8252 3:-0.141 4:5.6418 5:-1.1735 6:-0.0926 7:0.7736 8:-1.6135 9:-0.1262 10:-1.3433 11:0.1782 12:0.0315 13:32.9486 14:4.3704 15:-0.0272 16:3.2574 17:-0.7542 18:0.5461 19:0.1692 20:-0.606 21:0.0718 22:-0.6133 23:0.2032 24:0.0775 25:40.3389 26:2.1428 27:-0.4717 28:1.9397 29:-0.7272 30:0.9039 31:0.0642 32:-0.487 33:0.0734 34:-0.3557 35:0.3492 36:0.2645 37:2.2749 38:3.2874 39:1.6994 
1 1:5.9336 2:8.1089 3:-0.6599 4:6.0244 5:-0.6262 6:0.8641 7:1.2958 8:-1.1086 9:1.1512 10:-1.2022 11:0.6709 12:-0.483 13:36.9859 14:3.8004 15:-0.6968 16:2.8303 17:0.1157 18:0.1355 19:1.2545 20:-0.1244 21:1.0075 22:-0.5119 23:0.3718 24:-0.6271 25:41.2563 26:1.1493 27:-1.111 28:1.037 29:0.0415 30:-0.2282 31:0.8453 32:0.3155 33:0.6889 34:-0.8568 35:0.6804 36:-0.9165 37:2.7922 38:3.1325 39:1.7999 
1 1:16.8008 2:5.4669 3:-1.9405 4:4.2682 5:-0.6919 6:0.0393 7:1.6945 8:-0.5193 9:1.8276 10:-0.7107 11:0.9249 12:-1.0002 13:40.7862 14:2.4079 15:-0.8912 16:1.6303 17:-0.7559 18:-0.0362 19:0.7019 20:-0.5159 21:0.7935 22:-0.0208 23:0.4697 24:-0.009 25:41.4743 26:0.5455 27:-0.5726 28:0.7328 29:-0.5836 30:-0.0462 31:0.7932 32:-0.0842 33:0.2035 34:-0.1013 35:0.2953 36:0.5072 37:3.1281 38:3.2513 39:2.1556 
1 1:19.4104 2:5.1637 3:-1.3774 4:4.9248 5:-0.8428 6:-0.0645 7:0.7437 8:-1.3112 9:0.9009 10:-0.7683 11:0.6699 12:-0.5324 13:40.4384 14:3.0392 15:-0.3774 16:3.2825 17:0.1189 18:0.0085 19:-0.376 20:-1.0617 21:-0.1193 22:-0.7786 23:0.1132 24:-0.5012 25:41.6132 26:1.8624 27:0.0992 28:1.7578 29:0.2081 30:-0.1138 31:-0.1435 32:-0.2576 33:-0.2808 34:-0.7242 35:-0.0779 36:-0.3858 37:3.5309 38:3.5532 39:2.1725 
1 1:16.5082 2:5.9252 3:-1.0291 4:5.1545 5:-0.4176 6:-0.0931 7:0.0493 8:-1.527 9:0.7889 10:-0.5224 11:-0.3459 12:-0.6568 13:38.6135 14:2.7389 15:-0.4716 16:2.0872 17:-0.43 18:-0.2075 19:-0.0069 20:-0.6391 21:0.8098 22:0.5038 23:-0.062 24:-0.3258 25:40.4781 26:1.6236 27:0.2749 28:1.1149 29:0.541 30:-0.1343 31:0.0979 32:0.1291 33:0.0668 34:0.2108 35:-0.2316 36:-0.2984 37:3.3475 38:3.1929 39:1.892 
1 1:18.8453 2:5.4347 3:-1.8342 4:3.9281 5:-0.4868 6:-0.3718 7:0.3576 8:-1.1335 9:0.6793 10:-0.3271 11:-0.5903 12:-0.4731 13:40.4459 14:2.8511 15:-1.2531 16:1.687 17:-0.4578 18:-0.3929 19:0.3734 20:-0.3918 21:0.0509 22:-0.6452 23:-0.4684 24:0.006 25:41.7022 26:1.2794 27:-0.6758 28:0.7434 29:-0.3351 30:-0.5399 31:-0.028 32:-0.4976 33:-0.2065 34:-0.264 35:0.167 36:-0.1555 37:3.1457 38:3.132 39:1.9024 
1 1:15.5373 2:5.7078 3:-2.231 4:4.0387 5:-1.2165 6:-0.2135 7:0.9474 8:-1.2432 9:0.1023 10:-1.2777 11:0.1032 12:-0.2725 13:37.8176 14:2.9631 15:-0.953 16:2.1924 17:-0.5717 18:0.0926 19:0.3902 20:-1.1203 21:0.0505 22:-1.3258 23:0.0113 24:-0.5517 25:40.8171 26:2.9097 27:0.1802 28:1.4456 29:-0.0303 30:-0.2107 31:-0.4173 32:-1.5492 33:-0.6541 34:-1.7234 35:0.0179 36:-0.5862 37:3.0267 38:3.4074 39:2.2569 
